tree
version=v4
num_class=1
num_tree_per_iteration=1
label_index=0
max_feature_idx=5
objective=quantile
feature_names=SURGERY HOSP_TYPE fallecido HOSP_LOCATION DOLARES_PREAUTH TASA_MORTALIDAD_INTERNA_HOSP
feature_infos=-1:7:6:2:19:8:389:17:303:468:1:16:12:83:4:553:35:642:18:10:20:109:108:5:701:156:11:34:464:222:76:15:908:707:508:24:554:119:61:45:395:271:423:145:356:123:110:241:9:21:595:840:0:106:583:416:552:130:449:884:348:656:120:329:593:519:893:838:402:338:623:113:149:542:336:580:450:22:556:154:422:153:357:839:3:365:230:658:483:413:620:372:854:392:121:536:330:14:641:217:706:67:300:897:128:54:443:211:490:187:31:691:534:492:907:155:900:133:231:152:861:369:831:125:331:201:284:167:507:320:335:679:438:23:832:499:666:82:708:62:223:738:33:506:879:655:206:476:886:99:40:532:590:774:367:435:898:150:212:63:259:904:633:205:427:571:871:140:581:878:131:858:98:112:148:281:461:608:166:244:537:195:496:491:612:96:705:864:203:296:97:194:238:124:720:111:325:798:260:548:295:663:718:502:617:143:396:349:132:235:472:837:407:126:344:36:164:628:636:127:505:862:906:59:160:265:139:322:637:650:727:730:250:629:105:729:874:888:180:736:917:480:107:439:814:690:731:899:903:594:662:693:910:638:115:518:627:805:100:460:684:723:715:433:447:157:270:359:830:71:516:41:488:151:363:630:51:765:39:190:376:381:703:44:605:792:380:598:739:328:425:804:896:29:163:183:699:233:524:549:316:445:741:778:185:229:218:256:526:676:466:500:569:821:916:26:81:411:860:350:393:456:515:626:833:717:761:337:453:873:915:346:766:410:428:469:719:214:129:285:722:169:418:562:687:815:179:746:101:200:560:577:894:58:290:399:528:773:807:192:426:431:442:582:743:165:199:810:911:92:301:621:209:535:694:811:13:454:616:783:78:415:440:473:487:700:818:869:558:660:665:885:391:539:578:733:803:843:135:174:318:412:555:600:673:912:114:184:193:245:317:414:444:634:669:749:70:191:345:545:675:689:786:228:263:351:406:457:470:498:659:686:725:802:216:232:455:533:881:75:246:305:358:511:531:550:711:744:754:779 -1:0:1 [0:1] -1:42:10:41:27:40:14:19:11:32:2:36:29:43:8:46:26:4:38:6:21:35:39:20:13:37:0:33:25:1:31:23:7:12:45:24:9:34:17:18:3:30:5:16:22 [5.5:5720] [0:0.5]
tree_sizes=3952 4168 4246 2928 4336 4165 4336 4273 2945 4113 2938 5017 4492 2966 4120 2950 4699 4662 2976 4425 4445 4543 4303 2978 5047 2981 4704 4752 4585 4386 4136 4650 4743 4657 4601 5437 4524 2976 4749 4664 3000 3008 4677 2993 4779 4465 4478 4687 3013 4875 4681 2998 4585 2998 5017 4661 4782 4765 3059 4697 4122 3016 4090 4245 4291 4691 4166 4790 4712 3003 4425 3893 2927 4114 3987 3955 4061 3809 3877 3794 3812 4093 4006 3869 3932 3980 4011 3047 4641 3041 2953 4198 2913 4335 3955 4052 4233 4140 4165 2922 3979 4418 3873 4566 4501 4288 2920 4558 4545 2942 3930 4130 4139 4473 4214 4411 4069 3015 2951 3858 4203 3869 4510 4260 4126 4992 3986 3895 2962 4386 4239 3758 2970 4472 4070 3981 4352 2914 3002 3797 3980 4180 3980 4708 3940 4001 4417 3757 3014 3038 4275 4521 3958 4353 4569 4395 4218 4165 4491 3064 2934 4148 4416 4705 4680 2946 4052 4051 4618 4307 4327 4448 3867 4471 4358 4692 3026 4462 4339 4298 4222 3016 3059 4333 4012 4281 4232 3870 4408 3078 3044 4234 4489 4316 4388 3035 4227 3891 3009 3946 4335 4354 3910 4463 4100 4303 3935 3992 4139 4391 3862 4614 4037 4341 4568 4321 4356 4363 4211 4239 4337 4607 4266 4257 4432 3914 3791 4298 3951 3978 3779 4344 2976 3930 3016 4230 4425 4632 3018 4199 3000 4274 4530 4004 4228 4084 4103 2997 4349 4094

Tree=0
num_leaves=31
num_cat=19
split_feature=5 0 0 3 0 0 0 4 3 3 3 3 3 0 3 0 5 4 0 0 5 5 4 0 0 5 4 2 3 2
split_gain=2518.38 1008.75 778.562 691.4 348.055 293.233 204.903 149.019 144.946 131.135 120.255 109.76 107.372 132.079 73.6717 66.5111 52.2776 50.6312 50.5737 45.7482 36.5965 35.2195 33.8246 31.2264 29.2357 25.6243 19.4856 16.8813 14.395 16.0807
threshold=0.021465030436811503 0 1 2 3 4 5 715.05500000000018 6 7 8 9 10 11 12 13 0.016881009019724457 137.84000000000003 14 15 0.025473701003082255 0.010973309251454949 134.89500000000001 16 17 0.0082706063570730827 714.29500000000019 1.0000000180025095e-35 18 1.0000000180025095e-35
decision_type=2 9 9 9 9 9 9 2 9 9 9 9 9 9 9 9 2 2 9 9 2 2 2 9 9 2 2 2 9 2
left_child=2 14 8 15 19 11 10 9 21 -8 25 24 18 -14 17 20 -9 22 -6 -5 26 -1 -2 -10 -4 -7 -3 -12 29 -16
right_child=1 3 5 4 12 6 7 16 23 -11 27 -13 13 -15 28 -17 -18 -19 -20 -21 -22 -23 -24 -25 -26 -27 -28 -29 -30 -31
leaf_value=175.3299963235855 161.6299998998642 169.67499983906745 174.00499928593635 182.46499878764152 172.94999999999999 171.30000000000001 167.80000000000001 167.90000000000001 173.77999646663665 165.44999999999999 168.19999999999999 170.43999551534654 169.05000000000001 174.59999999999999 167.5 167.19999999999999 171.09999999999999 164.25 170.94999999999999 176.76999545097351 170.19999999999999 183.28499849438668 175.77999955415726 169.55000000000001 180.01999789476395 173.55000000000001 175.70999972820283 174.31499990820885 165.69999999999999 171.85999952554704
leaf_weight=1543 85 136 600 1018 2792 1037 34759 25270 495 225293 5936 3763 2176 27006 4691 8290 4536 252 6292 3817 2319 1264 375 1434 884 2040 229 78 11358 200
leaf_count=1543 85 136 600 1018 2792 1037 34759 25270 495 225293 5936 3763 2176 27006 4691 8290 4536 252 6292 3817 2319 1264 375 1434 884 2040 229 78 11358 200
internal_value=168 168.008 167.998 168.012 168.015 167.998 167.997 167.997 168.018 167.997 168.005 168.009 168.013 168.014 167.998 168.001 168.001 168.013 168.008 168.027 168.007 168.025 168.023 168.007 168.021 168.013 168.022 168.001 167.997 167.999
internal_weight=379968 71036 308932 54075 43101 304196 298949 289858 4736 260052 9091 5247 38266 29182 16961 10974 29806 712 9084 4835 2684 2807 460 1929 1484 3077 365 6014 16249 4891
internal_count=379968 71036 308932 54075 43101 304196 298949 289858 4736 260052 9091 5247 38266 29182 16961 10974 29806 712 9084 4835 2684 2807 460 1929 1484 3077 365 6014 16249 4891
cat_boundaries=0 23 52 54 83 112 141 143 145 147 149 151 178 179 208 237 266 295 324 326
cat_threshold=17170560 0 262144 964703240 877821993 0 0 0 0 8192 0 268443648 0 0 262144 0 0 0 131072 0 0 0 8 16384 0 0 0 0 3221750272 0 0 0 4096 0 1048624 512 13109248 6561792 33556480 167772160 0 0 8192 0 16384 0 256 0 0 256 20971520 3 134349076 65 1025 0 0 0 0 134217728 4 64 0 0 32 1048576 75502080 4325440 8224 201331721 1048640 16 2 0 65536 134217728 0 0 0 0 0 1048576 524290 8 16 0 0 0 0 2151809152 2097216 128 0 536870912 536870912 2692747264 2147483716 16777218 4195328 1048576 0 64 512 524288 8 67108864 128 0 0 0 1048576 20 2132480 71303168 8 0 0 16384 0 2176 1 0 262144 0 0 134250497 0 128 1075843072 0 2 4096 1048576 134217728 134481920 0 32 2147484672 4194304 2097152 8 1068070 24592 1196770 24582 1068036 24600 1065030 16408 553650176 2576 524288 536870922 0 0 35651600 128 4194816 0 32768 0 3072 0 262144 8388608 0 268435584 0 768 262336 262144 2 0 0 536870912 1024 2114560 1 131136 2113566 541073408 4096 0 0 0 2147483648 0 33587200 4 268436512 1048592 256 268439744 0 272631808 0 0 0 4198400 0 0 67108864 0 0 0 4194304 0 4 2152990 0 0 0 0 16 1048576 0 0 4096 16777217 48 0 2181 285212674 1050624 1073745920 262144 0 0 4194304 0 0 0 0 0 32 0 4 0 0 0 0 0 0 0 64 0 0 0 1048576 512 4325376 0 0 0 0 0 0 0 0 0 0 0 0 0 0 2 0 0 0 0 0 0 0 0 0 0 0 1048576 0 0 0 0 0 0 0 0 0 0 0 256 0 0 0 0 2 0 16 0 0 0 0 0 0 0 0 0 0 8388608 64 16777218 0 0 0 0 0 524288 0 67108864 0 0 0 0 0 16 526336 3584
is_linear=0
shrinkage=1


Tree=1
num_leaves=31
num_cat=20
split_feature=5 0 0 3 0 0 0 4 3 3 3 0 0 3 3 0 3 4 4 0 5 5 5 0 0 5 0 2 3 2
split_gain=2130.16 852.851 650.009 574.68 276.616 276.025 169.768 144.417 131.358 116.643 100.198 98.0202 95.605 92.3052 68.6202 56.707 50.5379 47.9056 32.0413 28.7898 28.0154 27.4144 21.4726 21.3578 18.6765 17.5636 15.7625 15.2889 13.9594 14.2876
threshold=0.021465030436811503 0 1 2 3 4 5 715.05500000000018 6 7 8 9 10 11 12 13 14 137.84000000000003 134.89500000000001 15 0.011879003960451927 0.025473701003082255 0.0084998508798091281 16 17 0.0082706063570730827 18 1.0000000180025095e-35 19 1.0000000180025095e-35
decision_type=2 9 9 9 9 9 9 2 9 9 9 9 9 9 9 9 9 2 2 9 2 2 2 9 9 2 9 2 9 2
left_child=2 14 9 15 19 13 10 8 -8 23 25 -6 -13 22 17 21 -9 18 -2 -5 -11 -3 -4 -1 -24 -7 -17 -12 29 -16
right_child=1 3 5 4 11 6 7 16 -10 20 27 12 -14 -15 28 26 -18 -19 -20 -21 -22 -23 24 -25 -26 -27 -28 -29 -30 -31
leaf_value=5.0959943675994879 -6.0515000951290139 6.1546742376803918 4.7097996556890314 14.376750060617923 6.811500227451325 3.6849999999999996 -0.14000000000000057 2.6469983696937565 -2.4224999999999994 8.5335001838207258 0.39749442279338898 6.620000000000001 4.5200000000000005 1.7280002242326731 -0.47500000000000003 -2.0099999999999993 -0.2450000000000003 -3.5625 7.3909995764493948 10.211500227451324 15.199000105261803 2.3999982023239141 3.5324496193438311 1.8724999999999996 9.418547151695341 5.812494478225708 0.29000000000000059 6.0842499092221267 -2.1849999999999996 3.6669995492696756
leaf_weight=444 85 332 488 806 4830 742 34858 6839 225166 1362 6239 12385 22634 3720 4708 3662 23002 252 375 2418 1113 1509 550 1360 1423 1545 5471 81 11369 200
leaf_count=444 85 332 488 806 4830 742 34858 6839 225166 1362 6239 12385 22634 3720 4708 3662 23002 252 375 2418 1113 1509 550 1360 1423 1545 5471 81 11369 200
internal_value=-0.000186833 0.00762036 -0.00198202 0.0106908 0.0132938 -0.00225402 -0.0024707 -0.00267624 -0.00305441 0.0173479 0.00444644 0.0121467 0.0112166 0.00819657 -0.00215277 0.000471594 0.000618108 0.0129363 0.0227174 0.0273902 0.0244165 0.00845219 0.0157001 0.00756891 0.0180867 0.0133936 -0.00114459 0.00119273 -0.00282035 -0.000587638
internal_weight=379968 71036 308932 54047 43073 304653 298472 289865 260024 4279 8607 39849 35019 6181 16989 10974 29841 712 460 3224 2475 1841 2461 1804 1973 2287 9133 6320 16277 4908
internal_count=379968 71036 308932 54047 43073 304653 298472 289865 260024 4279 8607 39849 35019 6181 16989 10974 29841 712 460 3224 2475 1841 2461 1804 1973 2287 9133 6320 16277 4908
cat_boundaries=0 23 52 54 83 112 141 143 145 147 176 205 207 208 237 239 268 297 320 349 351
cat_threshold=17170560 0 262144 964703240 877822009 0 0 0 0 8192 0 268443648 0 0 262144 0 0 0 131072 0 0 0 8 0 16 0 0 0 3221750272 0 2097216 0 4096 0 1048624 512 13107200 6561792 33556480 167772160 0 0 8192 0 16392 0 256 0 0 0 20971520 7 134349076 65 0 0 0 0 0 0 4 64 0 0 268435488 1048576 335548928 4325444 8224 67113992 1048576 16 18 4096 0 0 0 8 0 0 0 1048576 524290 16392 4194304 0 0 0 0 2151809152 0 128 0 536870912 536870912 2692747264 2147485764 16777218 4195328 1048576 0 0 512 524288 0 201326592 128 0 0 256 1048576 16 2132480 67108864 8 0 0 16384 0 2176 33554433 0 0 0 0 134250497 0 128 1075843072 16 66 4096 1048576 0 264192 1024 0 2147484672 4194304 0 8 1196770 24582 134742417 3873 1067012 24600 2098177 0 0 0 0 134218240 10 16512 0 0 16777216 32 0 2281704449 18874368 135266305 1107300416 0 0 1073741824 65536 134217728 16384 0 2048 0 32 0 1048576 39430 16 0 0 0 0 0 0 128 0 537133569 536870912 12582912 0 1114114 33556480 139018240 0 32 0 0 32768 0 1 0 3221225472 0 0 4 1067076 16408 131136 2113542 541073408 0 0 0 0 0 0 32768 4 268435488 1048592 256 268439616 0 2048 0 0 0 4198400 0 0 0 0 0 0 4194304 0 4 17664 2076 0 0 0 0 0 0 0 0 0 0 0 1048576 512 4325376 0 0 0 0 0 0 0 0 0 0 0 0 0 0 2 0 0 0 0 0 0 0 0 0 0 0 1048576 0 0 0 0 0 0 0 0 0 0 0 256 0 0 0 0 2 8 4194304 0 0 0 0 2147483776 0 0 0 0 0 0 0 2 0 0 0 0 0 524288 0 67108864 2112 0 0 0 0 0 34628096 147584 16384 0 768 0 262144 524288 1048576 0 4194304 0 32 524288 65536 524288 33554436 0 64 2147483648 192 536903680 256 526336 3584
is_linear=0
shrinkage=0.05


Tree=2
num_leaves=31
num_cat=24
split_feature=1 3 0 0 0 0 0 0 5 3 3 5 3 3 0 3 0 3 2 2 0 0 3 2 0 0 3 5 3 3
split_gain=2911.11 1027.15 396.381 292.72 217.974 516.613 201.186 309.279 163.496 160.799 159.095 92.2155 115.23 63.1956 61.6556 64.3767 50.555 50.2601 46.5679 45.7641 38.7133 35.5522 35.2333 31.9001 30.8492 28.5589 24.2971 22.4172 17.0169 16.6723
threshold=0 1 2 3 4 5 6 7 0.017560992324561406 8 9 0.0167473487327661 10 11 12 13 14 15 1.0000000180025095e-35 1.0000000180025095e-35 16 17 18 1.0000000180025095e-35 19 20 21 0.022039563634270256 22 23
decision_type=1 9 9 9 9 9 9 9 2 9 9 2 9 9 9 9 9 9 2 2 9 9 9 2 9 9 9 2 9 9
left_child=6 3 13 29 22 17 23 11 16 -9 -7 19 -13 21 15 -10 -5 -6 25 28 -15 -3 -4 -1 -16 -11 -18 -14 -8 -2
right_child=1 2 4 8 5 10 7 9 14 18 -12 12 27 20 24 -17 26 -19 -20 -21 -22 -23 -24 -25 -26 -27 -28 -29 -30 -31
leaf_value=2.781875276088714 -0.051374999999998755 5.6047318057605402 1.9936372253149761 2.5039275005748873 5.2792240045141972 15.536460483890778 -0.48275000000000007 4.1178997448682777 -0.27999991011619446 -4.1013749999999991 6.3929961588382724 0.97000008988380559 8.9926466554403302 10.232346229470181 0.041899905204772929 6.5091540867569311 3.3986250000000013 -0.051838352486490102 2.998623750776054 6.7072487339973454 14.455816128070737 10.545637958267948 -1.7316503075957312 6.4894284817313226 4.4739390454210488 -2.4513749999999987 -0.57287661143592272 3.9732488756775859 0.92265008151531169 -2.1013749999999987
leaf_weight=6087 2947 980 232 1774 1746 1358 11132 2379 402 43367 32223 4347 1438 964 1137 2127 1283 7732 1671 178 1364 854 2868 290 5702 211755 7993 1452 8525 13661
leaf_count=6087 2947 980 232 1774 1746 1358 11132 2379 402 43367 32223 4347 1438 964 1137 2127 1283 7732 1671 178 1364 854 2868 290 5702 211755 7993 1452 8525 13661
internal_value=-0.000356847 0.00765355 0.0123034 0.00133033 0.0109653 0.011888 -0.00274794 -0.00294361 0.00533875 -0.00347482 0.0147985 0.00214127 0.00697319 0.0270829 0.0102007 0.0168787 0.00122172 0.00157146 -0.00359484 0.000379379 0.0327245 0.0197831 -0.00184888 0.00603022 0.00769528 -0.00364947 -0.000261685 0.0146897 0.000150836 -0.00359791
internal_weight=379968 87347 50321 37026 46159 43059 292621 286244 20418 259172 33581 27072 7237 4162 9368 2529 11050 9478 256793 19835 2328 1834 3100 6377 6839 255122 9276 2890 19657 16608
internal_count=379968 87347 50321 37026 46159 43059 292621 286244 20418 259172 33581 27072 7237 4162 9368 2529 11050 9478 256793 19835 2328 1834 3100 6377 6839 255122 9276 2890 19657 16608
cat_boundaries=0 1 3 32 60 86 115 144 173 175 177 179 181 210 211 240 242 271 300 301 330 351 353 355 357
cat_threshold=1 671353105 2352 65542 8192 0 0 0 0 0 128 0 0 1879048192 1048576 67109376 4325568 2105344 373295112 135266304 0 0 4096 0 0 262144 256 16777216 0 0 0 524291 5111936 4 524288 1786966017 289411076 32 0 0 0 0 0 0 0 0 0 0 0 0 655360 0 4 0 0 0 0 0 0 536870912 393216 0 786432 729953280 510820403 128 512 0 0 0 2048 0 0 0 0 0 0 0 0 0 0 0 0 0 0 2097152 17301632 2 128 268435456 536870920 33 33556481 16 33554432 0 99328 0 262144 0 268435584 0 0 0 4456576 1310720 2 0 8 536870916 0 16384 0 0 128 2097160 71303168 8 0 0 524288 2151678082 0 0 0 1056 536870912 2151677952 4164 0 1048576 8388608 0 0 12800 1048576 8 0 128 0 263168 4194304 0 12 2151677974 1073741824 0 0 0 0 16777216 128 33554432 0 2048 0 536870912 32768 16777216 37754880 16392 16 4194370 71303169 0 16 0 1024 32 2048 0 1 1024 64 4 0 16384 218646544 2049 1074283712 1 3150432 8192 4096 0 0 134217728 8 64 0 0 285212672 1048576 8392704 65 285212672 134807552 1077936128 0 0 0 4259840 671088640 0 0 0 2147483648 0 1048576 2 256 69238864 0 0 32 1081344 0 4194304 512 0 0 805306400 1048576 2147487744 2241 8192 6400 33554432 0 16 0 0 536870912 0 0 0 0 1073741824 1048576 2 131072 16384 0 0 0 0 0 0 0 128 0 0 1073741824 1048576 67108864 128 8192 369100808 0 0 0 0 0 0 0 0 0 0 0 0 524288 6 0 0 0 0 0 0 0 0 0 0 0 0 131200 2097152 8 1048576 0 0 4096 0 0 0 0 0 0 0 0 2 524292 6 2147483656 8 2164788234 67239961 1 0 0 0 0 512 0 0 0 0 0 16777216 256 16 0 0 0 67584 0 0 1040 64 16777344 256 917504 0 524288 176416257 389156900 64 512 0 0 0 0 0 0 0 0 0 16777216 256 131072 33554432 67108864 134219777 2064 218628096 777 134219776 2048
is_linear=0
shrinkage=0.05


Tree=3
num_leaves=31
num_cat=13
split_feature=1 4 3 4 3 3 3 5 5 3 5 2 2 3 3 3 2 4 4 5 4 3 4 5 3 3 3 5 4 4
split_gain=2451.68 1000.9 558.025 293.667 176.073 173.298 122.66 108.268 85.1569 119.794 75.7624 60.4392 53.0761 44.6584 42.0535 39.3256 37.7402 35.9434 27.4041 24.5413 23.6965 45.3143 35.5371 23.1777 29.1052 21.9494 21.3237 19.6788 18.7603 18.3962
threshold=0 140.65500000000003 1 715.05500000000018 2 3 4 0.011879003960451927 0.016881009019724457 5 0.017512670565302146 1.0000000180025095e-35 1.0000000180025095e-35 6 7 8 1.0000000180025095e-35 134.89500000000001 137.84000000000003 0.021465030436811503 134.89500000000001 9 119.29500000000002 0.021616171552232936 10 11 12 0.010836017176596888 1320.3300000000002 123.58500000000002
decision_type=1 2 9 2 9 9 9 2 2 9 2 2 2 9 9 9 2 2 2 2 2 9 2 2 9 9 9 2 2 2
left_child=3 6 10 5 7 18 20 15 11 -10 27 28 17 -12 -9 -4 -6 -7 29 -19 22 -22 26 24 -11 -8 -2 -3 -5 -1
right_child=1 2 4 8 16 12 25 14 9 23 13 -13 -14 -15 -16 -17 -18 19 -20 -21 21 -23 -24 -25 -26 -27 -28 -29 -30 -31
leaf_value=4.5503343745201823 2.1500260746013899 1.7551727662895413 15.612104053683158 -0.25861249999999958 5.1001706793809589 -3.6963062499999992 -1.7963062499999993 13.764182200244106 0.29480461495302718 2.8496026607958238 -0.2659999146103843 6.1994834223908875 3.1674442695165563 4.1153011513356654 10.876169041115789 1.6919398300647597 8.3493491966605173 -2.3288062499999995 3.366503778082131 -0.9009312499999993 5.2530387997742896 -0.43122982682871175 6.9412062445109317 3.0728375562161205 10.118016188293696 -0.12205664580464276 1.0217208586967712 -0.36304315813888643 2.3157066359922793 6.8355546151518825
leaf_weight=158 1040 1538 266 23005 27905 61607 13988 1541 5034 813 1107 265 1672 4011 8975 1565 836 173664 1919 18141 1659 2994 484 2132 1310 8855 1736 8847 2530 371
leaf_count=158 1040 1538 266 23005 27905 61607 13988 1541 5034 813 1107 265 1672 4011 8975 1565 836 173664 1919 18141 1659 2994 484 2132 1310 8855 1736 8847 2530 371
internal_value=-0.000506465 0.00684471 0.0107905 -0.00270078 0.0138391 -0.00328546 -0.00041553 0.0188488 0.00159038 0.00569545 0.00269999 0.000112402 -0.00341255 0.00768073 0.0208178 0.00764336 0.0116812 -0.00347127 0.00993084 -0.00313378 0.00494573 0.00266172 0.00822086 0.0118581 0.0155841 -0.00227388 0.00604107 0.000247953 -0.000134131 0.0200473
internal_weight=379968 87347 56591 292621 41088 257532 30756 12347 35089 9289 15503 25800 255084 5118 10516 1831 28741 253412 2448 191805 7913 4653 3260 4255 2123 22843 2776 10385 25535 529
internal_count=379968 87347 56591 292621 41088 257532 30756 12347 35089 9289 15503 25800 255084 5118 10516 1831 28741 253412 2448 191805 7913 4653 3260 4255 2123 22843 2776 10385 25535 529
cat_boundaries=0 1 3 5 7 9 11 12 14 16 18 20 22 24
cat_threshold=1 1208222033 290 36 25600 64 4 655364 17921 201345040 1024 256 0 16384 0 24576 131072 16384 524544 513 536871168 272 524292 512
is_linear=0
shrinkage=0.05


Tree=4
num_leaves=31
num_cat=23
split_feature=1 4 3 4 0 0 3 3 0 0 3 2 0 0 3 0 0 2 3 3 3 4 0 0 0 3 0 0 4 2
split_gain=2058.86 819.335 442.926 276.071 196.461 194.43 159.108 120.017 103.288 94.7645 82.6174 75.9197 66.3443 58.6675 47.5014 42.0373 36.5205 35.2113 34.6524 30.1113 26.2895 25.9766 27.8936 25.0871 23.5864 20.9272 20.4545 17.0047 16.5006 16.4194
threshold=0 140.65500000000003 1 715.05500000000018 2 3 4 5 6 7 8 1.0000000180025095e-35 9 10 11 12 13 1.0000000180025095e-35 14 15 16 137.84000000000003 17 18 19 20 21 22 123.58500000000002 1.0000000180025095e-35
decision_type=1 2 9 2 9 9 9 9 9 9 9 2 9 9 9 9 9 2 9 9 9 2 9 9 9 9 9 9 2 2
left_child=3 4 8 6 20 16 21 26 18 -9 19 13 -8 -5 -15 -14 -4 -17 -3 -6 -2 28 -23 -13 -10 -16 -7 -26 -1 -21
right_child=1 2 5 11 10 7 12 9 24 -11 -12 23 15 14 25 17 -18 -19 -20 29 -22 22 -24 -25 27 -27 -28 -29 -30 -31
leaf_value=4.3228176557941724 3.6239187751720454 4.3315175151358387 13.916312470623138 -2.9083419257754857 4.7725008260145598 10.437247271339878 1.6931148109918501 0.22383272239431934 -1.7781540920930554 5.9946143970283572 -1.882915856928203 -1.1105965174507013 0.037634062500001168 4.7186067646012049 2.1938126550189483 -2.612365937499999 10.458353058981796 2.8870713347579802 -0.15147839146674663 0.08292158229023272 6.8326535723628545 -1.6752209021320938 4.093564744659778 6.6726246183166271 -0.67026894638589918 0.37419560679781072 14.768082674110801 1.3651029433630988 6.493776884394288 4.9127873759264524
leaf_weight=158 2142 2154 696 4723 1748 455 3531 2139 2165 34373 17746 132 8202 882 10362 241986 2657 1365 497 7798 1125 610 1309 479 3256 18511 768 7431 371 197
leaf_count=158 2142 2154 696 4723 1748 455 3531 2139 2165 34373 17746 132 8202 882 10362 241986 2657 1365 497 7798 1125 610 1309 479 3256 18511 768 7431 371 197
internal_value=-0.00064345 0.00609311 0.00966311 -0.0026543 -0.000475681 0.0123792 -0.00322119 0.0113465 0.00245504 0.0108233 -0.00185443 0.00150631 -0.00334296 0.0011967 0.00201831 -0.00343856 0.0239325 -0.00355729 0.0114224 0.00184405 0.011097 0.00944264 0.00677697 0.0189771 0.000597884 0.00166655 0.0267518 0.00156259 0.0192911 0.000540286
internal_weight=379968 87347 56591 292621 30756 41088 257532 37735 15503 36512 27489 35089 255084 34478 29755 251553 3353 243351 2651 9743 3267 2448 1919 611 12852 28873 1223 10687 529 7995
internal_count=379968 87347 56591 292621 30756 41088 257532 37735 15503 36512 27489 35089 255084 34478 29755 251553 3353 243351 2651 9743 3267 2448 1919 611 12852 28873 1223 10687 529 7995
cat_boundaries=0 1 3 31 60 62 64 93 122 124 151 178 180 206 235 237 239 241 268 293 321 323 352 381
cat_threshold=1 1208222033 290 96 24 4096 0 0 0 1073741824 128 0 0 0 268435456 536871168 2048 258 8 0 0 16 32768 0 0 0 0 0 0 268435457 1024 0 0 0 0 0 0 4 16384 0 0 1879048224 1048576 67109376 4325568 2105344 373295104 51380224 0 0 0 0 134217728 262144 0 2048 1073741824 0 0 1572867 64 4 0 16384 16992 0 0 0 0 0 8 64 0 0 805306369 32 4096 65 16785408 68753664 1111490560 0 0 0 65536 536870912 0 0 0 0 0 1048576 2 0 6 524296 2148007954 69206038 0 33556992 0 33554432 0 1024 0 0 0 0 0 65536 0 21512192 0 6 0 10 536870912 0 2097152 0 0 128 134875140 19456 2 67108864 8 0 0 0 4194434 128 33554432 131076 32 536870912 2147483648 64 16777216 34605056 1082130432 16 66 71303680 1048576 0 0 1024 0 263168 4194304 32 512 0 2 0 134217728 1065472 72368640 16400 8192 0 16785408 0 0 4 262144 0 33558528 0 0 4195332 2147483648 262274 0 64 0 32 320 2116 12599301 536879120 0 0 0 16384 16777216 0 16896 0 0 0 536870912 524417 38011424 65536 33554440 67648 0 0 0 268435456 8388608 536870912 0 2048 0 0 0 0 0 0 0 0 0 0 0 0 512 4325376 0 268435456 0 0 0 0 0 0 0 0 0 0 0 0 1 64 256 131072 16384 537412864 257 1048736 0 0 0 0 0 1073741824 131072 0 32768 0 40960 32 0 0 268435456 1073741824 1024 0 0 0 0 8 0 1073741824 2147483648 320 0 0 0 0 0 0 1048576 16384 0 0 0 0 0 0 4 0 0 0 0 0 0 0 0 0 32768 0 260 524288 524290 77725716 8388624 0 0 536870912 132 33792 16777216 0 0 0 2147483648 0 4096 524288 1 4 2147483648 2050 0 0 1040 0 553648256 536890384 24 4096 0 0 0 0 1073741824 8 0 0 36864 0 0 0 0 0 1024 0 0 0 0 0 0 0 0 0 0 448 541065344 16 71684 3221225472 128 2147483648 0 134217728 2048 67239936 268435456 268439552 4 0 2048 67108864 0 134218752 4096 0 0 536870912 0 524288 201326592 4 0 0 541065536 0 524288
is_linear=0
shrinkage=0.05


Tree=5
num_leaves=31
num_cat=14
split_feature=1 4 4 0 5 0 5 5 0 5 5 5 0 2 0 0 0 0 2 2 0 4 5 0 0 2 0 0 4 4
split_gain=1728.22 695.502 251.484 226.504 189.625 162.16 153.431 121.633 104.098 85.0894 70.2901 60.5171 56.6979 52.4926 48.2764 43.0045 41.2148 39.7824 31.0475 29.5023 28.0176 25.3361 25.0099 23.2481 21.9241 21.6756 18.951 14.755 12.2953 20.3685
threshold=0 140.65500000000003 715.05500000000018 1 0.016881009019724457 2 0.015033952766901016 0.041964601744131004 3 0.017512670565302146 0.016881009019724457 0.038713078400363608 4 1.0000000180025095e-35 5 6 7 8 1.0000000180025095e-35 1.0000000180025095e-35 9 137.84000000000003 0.02046049188906332 10 11 1.0000000180025095e-35 12 13 134.89500000000001 110.33000000000001
decision_type=1 2 2 9 2 9 2 2 9 2 2 2 9 2 9 9 9 9 2 2 9 2 2 9 9 2 9 9 2 2
left_child=2 5 7 16 6 26 14 12 11 -10 13 -6 -1 20 -5 -14 -3 -12 -17 22 -4 28 -19 -8 -23 -7 -2 -22 29 -9
right_child=1 3 10 4 8 25 23 21 9 -11 17 -13 15 -15 -16 18 -18 19 -20 -21 27 24 -24 -25 -26 -27 -28 -29 -30 -31
leaf_value=1.7889530566855161 7.2756143355965053 12.796593746477242 -2.9518335287112252 0.42220003213206525 10.514610938237622 -0.93136767014874955 2.0975661818385478 10.211679229907922 12.758134814442668 4.2696109382376193 -1.3835029964629699 3.4146109382376211 -3.6808726406250005 5.5558780203555109 4.9803668198645479 -2.0788607334751488 10.395497675596545 4.397426306577664 2.6005422316259614 7.1224515231897261 2.3307018893929001 -1.5012114091725495 1.9491484272389201 -0.92283415868941321 4.3401003289614861 3.4762104127650915 3.7942570855897162 0.0082405547189705972 6.169088481248945 -5.8883990128137214
leaf_weight=3147 486 446 3536 2114 5090 27093 1217 33 932 24552 1550 2376 44486 265 9902 206256 2628 2665 1469 207 2482 633 4867 7334 1056 491 2686 19517 346 106
leaf_count=3147 486 446 3536 2114 5090 27093 1217 33 932 24552 1550 2376 44486 265 9902 206256 2628 2665 1469 207 2482 633 4867 7334 1056 491 2686 19517 346 106
internal_value=-0.000754907 0.00541707 -0.00259723 0.00870624 0.007943 -0.000634999 0.00417732 -0.00313829 0.0102959 0.00876206 0.00137379 0.0154989 -0.00323855 3.10066e-05 0.0078204 -0.00332171 0.0218969 0.00510335 -0.00301911 0.00656278 -0.000198748 0.00863845 0.00605948 -0.000941996 0.005746 -0.00186707 0.0100534 0.000465945 0.0187113 0.00615108
internal_weight=379968 87347 292621 56591 53517 30756 20567 257532 32950 25484 35089 7466 255358 25800 12016 252211 3074 9289 207725 7739 25535 2174 7532 8551 1689 27584 3172 21999 485 139
internal_count=379968 87347 292621 56591 53517 30756 20567 257532 32950 25484 35089 7466 255358 25800 12016 252211 3074 9289 207725 7739 25535 2174 7532 8551 1689 27584 3172 21999 485 139
cat_boundaries=0 1 30 57 86 113 142 163 177 206 231 260 288 304 333
cat_threshold=1 0 8192 0 0 0 0 8 16384 0 0 1879048192 0 512 4325380 6299648 306251776 39321600 16 2 0 4194304 0 278528 0 2048 1073741824 0 0 1048579 64 24 4096 0 0 0 1073741824 128 0 0 0 0 536871168 2048 258 8 0 0 0 0 0 0 0 0 0 0 268435457 2162950 4194304 0 0 0 0 4 64 0 0 32 1048576 268439552 525376 1114144 134747137 0 0 0 4096 65536 536887296 0 0 0 2147483648 0 1064960 524288 2 67108864 8 0 0 0 4194434 128 33554432 131072 32 536870912 2147483648 64 33554432 1050624 10485760 16 66 71303680 1048576 0 0 1024 0 263168 4194304 2048 6 524288 18 69206034 0 16384 2048 0 0 262145 0 0 0 0 0 0 4096 786432 0 8912902 4096 67108876 8 0 0 32 128 256 917504 0 524288 1803711489 489822240 65 0 0 0 0 0 0 0 0 0 0 16777216 256 0 33554432 2 0 0 0 0 0 0 0 0 0 0 0 0 0 4325376 0 512 0 0 0 0 1065472 68174336 16 8192 32 16777216 0 536870912 8196 0 0 0 0 2097153 4194304 16 262144 0 32864 0 32 1 557056 96 512 0 2 0 134217728 1065472 72368640 16400 8192 0 16785408 0 0 0 4194304 0 33558528 0 0 4195332 2147483648 262274 0 262208 2149580816 67108864 8 0 0 0 2147500032 1049088 0 0 288 1048608 2147487776 193 268435456 4353 0 0 0 4096 33554432 0 0 0 0 0 32 1081344 4 33152 0 0 0 0 0 0 0 0 0 512 0 32 0 33554432 269025280 1075838992 0 0 0 0 0 8 0 0 2147483648 64 536870912 0 0 0 0 0 0 0 128 0 0 0 0 0 0 0 8 2097160 4194304 0 0 0 524288 2147483648 0 0 0 0 0 0 4 0 0 0 0 0 12800 0 8 0 128 0 0 4194304 0 12
is_linear=0
shrinkage=0.05


Tree=6
num_leaves=31
num_cat=24
split_feature=1 4 3 4 0 0 3 3 3 0 0 2 0 0 4 3 0 3 3 0 0 3 4 0 0 0 0 0 0 2
split_gain=1485.91 590.331 324.282 235.962 174.136 141.797 131.487 101.738 73.1296 71.9383 68.602 65.278 59.9326 52.3734 46.4828 41.6159 39.5921 34.1547 25.3833 21.5749 21.5499 21.008 20.1353 21.964 19.7758 19.4498 18.6518 15.3347 14.8614 13.1956
threshold=0 140.65500000000003 1 715.05500000000018 2 3 4 5 6 7 8 1.0000000180025095e-35 9 10 134.89500000000001 11 12 13 14 15 16 17 137.84000000000003 18 19 20 21 22 23 1.0000000180025095e-35
decision_type=1 2 9 2 9 9 9 9 9 9 9 2 9 9 2 9 9 9 9 9 9 9 2 9 9 9 9 9 9 2
left_child=3 5 10 6 17 26 22 20 21 -9 18 13 -8 -5 27 -15 -16 28 -3 -13 -6 -7 -1 -24 -17 -12 -2 -14 -4 -27
right_child=1 2 4 11 7 8 12 9 -10 -11 25 19 14 15 16 24 -18 -19 -20 -21 -22 -23 23 -25 -26 29 -28 -29 -30 -31
leaf_value=5.7282224335136576 6.9118336188166793 3.932720815426697 12.236456972262639 -2.6542418522756637 14.48755712286369 4.5804441682212698 1.4743786003931199 0.08506254228340776 -1.7422016805743554 5.40113039132574 -1.6431046795539317 -1.0162914995906924 -0.15942960395124289 4.3656859524931795 0.049333332635016588 2.6633908847961552 -2.0278046039512421 9.0039187397656804 -0.44310719757796735 6.0218625864789921 11.639924588822161 0.19984388668315775 -1.7922982050844132 3.7995119009003688 0.66492631284839521 0.37669084533124297 3.5234580667631343 -3.4293290085937502 12.639208749836992 5.4656624478926306
leaf_weight=529 486 2110 424 4723 253 1748 3939 2223 17765 35217 2158 132 2428 882 10396 2414 179944 1180 472 479 1092 7959 599 1320 26459 10469 2798 58377 753 240
leaf_count=529 486 2110 424 4723 253 1748 3939 2223 17765 35217 2158 132 2428 882 10396 2414 179944 1180 472 479 1092 7959 599 1320 26459 10469 2798 58377 753 240
internal_value=-0.000834256 0.00488872 0.00791901 -0.00254256 0.0102374 -0.000687022 -0.00306665 0.00942969 -0.00186158 0.00893858 0.00173717 0.00130397 -0.00317734 0.00101688 -0.00327338 0.00179321 -0.00288904 0.0234326 0.00915895 0.0175041 0.0229336 0.00162756 0.00844589 0.00609953 0.00146401 0.000241903 0.00911657 -0.00447702 0.0297094 0.00111531
internal_weight=379968 87347 56591 292621 41142 30756 257532 38785 27472 37440 15449 35089 255084 34478 251145 29755 190340 2357 2582 611 1345 9707 2448 1919 28873 12867 3284 60805 1177 10709
internal_count=379968 87347 56591 292621 41142 30756 257532 38785 27472 37440 15449 35089 255084 34478 251145 29755 190340 2357 2582 611 1345 9707 2448 1919 28873 12867 3284 60805 1177 10709
cat_boundaries=0 1 3 32 59 61 63 65 94 123 150 177 179 205 207 209 234 262 264 291 320 348 364 391 408
cat_threshold=1 1208222033 288 0 4194304 0 0 0 0 0 0 0 0 805306400 0 512 4325440 6299648 301996032 1048576 16 0 4096 4194304 134234112 16384 1 2048 1073741840 0 0 1572867 16777280 24 4096 0 1048576 0 1073741824 128 0 0 0 268435456 536871168 2048 258 8 0 0 16 0 0 0 0 0 0 0 268435457 64 4 0 16384 134875140 19456 0 67108870 524296 2148007954 69206038 0 33556992 0 33554432 0 1024 0 0 0 0 0 65536 0 4718720 0 6 4096 33554442 32 0 2097152 0 0 128 16992 0 0 0 0 0 8 576 33554432 0 268435457 32 0 65 16777344 68753664 1111490560 0 0 0 65536 536870912 0 0 0 0 0 1048576 2 4194306 67108864 8 0 0 0 4194434 128 33554432 131076 32 536870912 2147483648 64 16777216 34605056 1082130432 16 66 67109376 1048576 0 0 1024 0 263168 4194304 32 512 0 2 0 134217728 1065472 72368640 16400 8192 0 16785408 0 0 4 262144 0 33558528 0 0 4195332 2147483648 262274 0 64 0 32 320 2116 16389 671096832 0 0 0 16384 16777220 0 16896 0 0 0 0 134742145 37749280 268505088 37748744 64 0 4194304 0 268435456 8388608 536870912 0 2048 4 17408 64 256 0 0 0 0 0 0 1048576 16384 0 0 0 0 0 0 4 0 0 0 0 0 0 0 0 0 32768 16960 0 0 0 0 0 0 64 0 0 0 0 0 1 65536 0 16777216 0 0 0 0 0 0 0 0 0 0 1048576 131072 16384 1049760 0 0 0 0 0 1073741824 131072 0 32768 0 40960 32 0 0 268435456 1073741824 1024 0 0 0 0 8 0 1073741824 0 320 8 4194304 0 0 0 524288 2147483648 0 0 0 0 0 0 4100 0 0 0 0 0 12800 0 8 0 0 0 0 4194304 0 12 0 260 524288 524290 77725716 8388624 0 0 0 268435588 33792 16777216 0 0 0 2147483648 0 4096 524288 1 4 0 2050 0 0 1024 0 553648256 0 0 0 0 0 0 0 128 0 0 0 0 0 0 0 8 8388608 536870912 4096 0 128 0 1073741824 0 0 0 0 0 536870912 2048 2 8 0 2048 16 0 0 536870912 0 0 0 0 1 0 0 0 0 0 0 0 0 0 0 0 0 0 4325376 0 0 1048576
is_linear=0
shrinkage=0.05


Tree=7
num_leaves=31
num_cat=23
split_feature=1 3 0 0 0 0 0 3 0 3 3 5 5 3 0 0 3 2 2 3 0 2 0 3 3 5 3 5 0 0
split_gain=1297.18 481.71 240.816 145.482 212.565 127.684 122.171 109.53 109.463 104.186 76.3338 62.5516 49.4487 63.1011 43.62 38.9001 36.8305 33.4549 32.9936 30.8858 34.3527 26.5373 22.778 13.4213 12.5215 11.1257 10.9131 10.8479 10.3319 8.99915
threshold=0 1 2 3 4 5 6 7 8 9 10 0.017560992324561406 0.0167473487327661 11 12 13 14 1.0000000180025095e-35 1.0000000180025095e-35 15 16 1.0000000180025095e-35 17 18 19 0.022039563634270256 20 0.030799813798446676 21 22
decision_type=1 9 9 9 9 9 9 9 9 9 9 2 2 9 9 9 9 2 2 9 9 2 9 9 9 2 9 2 9 9
left_child=3 6 15 21 12 7 -2 -4 16 29 -10 22 17 -14 26 -3 -7 23 -16 -13 -21 24 -8 -5 -1 -15 -11 -9 -26 -6
right_child=1 2 5 4 9 8 11 27 10 14 -12 19 13 25 18 -17 -18 -19 -20 20 -22 -23 -24 -25 28 -27 -28 -29 -30 -31
leaf_value=4.25372043357926 -1.6786666771174339 11.632991732752467 4.3010827717780717 -0.6480499987182583 0.51468965047809434 2.9238238717594527 2.1133620128520305 9.7134065204785411 5.1860738717594508 0.97457687910405866 1.933070086149252 -0.61052412693533642 0.27710441295159316 5.6493063402963788 -2.2764143737536799 10.191023387025632 9.4227210123115963 5.0893938506152612 2.6221230979229828 5.5351297011239424 2.7639677538155656 5.2078077401884535 -0.42619490208879968 0.63311826606590416 3.7764203866638399 2.6619961708479751 -0.42519510677749139 10.797692538213601 1.7897215917453115 3.4213178990629594
leaf_weight=567 14749 444 3844 8943 534 2842 1316 716 9178 2455 31757 1128 3848 1960 246246 2363 3675 180 1519 1199 4482 218 8227 10630 532 1815 6399 1427 4753 2022
leaf_count=567 14749 444 3844 8943 534 2842 1316 716 9178 2455 31757 1128 3848 1960 246246 2363 3675 180 1519 1199 4482 218 8227 10630 532 1815 6399 1427 4753 2022
internal_value=-0.000902682 0.00444451 0.00720492 -0.00249881 -0.00266106 0.00645204 -0.000549807 0.0133342 0.0055811 -0.00310367 0.00462022 0.00242574 0.00152888 0.00495015 -0.00320383 0.0214643 0.0116003 0.000209334 -0.00332711 0.00608826 0.00758127 0.00515625 -0.000184954 1.20051e-05 0.00452666 0.00953104 0.000245937 0.0224036 0.0037441 0.00692517
internal_weight=379968 87347 56246 292621 286551 53439 31101 5987 47452 259175 40935 16352 27376 7623 256619 2807 6517 19753 247765 6809 5681 6070 9543 19573 5852 3775 8854 2143 5285 2556
internal_count=379968 87347 56246 292621 286551 53439 31101 5987 47452 259175 40935 16352 27376 7623 256619 2807 6517 19753 247765 6809 5681 6070 9543 19573 5852 3775 8854 2143 5285 2556
cat_boundaries=0 1 3 32 61 90 119 147 149 176 178 180 181 210 224 225 226 254 283 285 287 289 318 345
cat_threshold=1 671351057 304 4194304 0 0 0 0 0 0 128 0 0 1879048224 0 512 4326464 2105344 301991944 1048576 16 64 0 4194304 16384 18432 1 16777216 1073741840 0 16777216 3 6291464 71303168 8 0 0 524288 2151678082 0 0 0 32 536870912 2151677952 4100 0 1048576 8404992 0 0 12800 1048576 8 0 1152 0 263168 4194304 0 12 2147483670 1073741824 0 0 0 0 16777216 128 33554432 4 3072 0 536870912 32832 54525952 33560576 1073741832 0 64 67108865 0 16 0 0 32 1073743872 0 1 1024 2162951 0 0 0 0 512 6 0 0 0 0 1048608 0 133 4521984 134222849 50331648 0 2 4096 0 0 786432 0 2048 0 0 16384 1572864 5111936 4 524288 729838593 356515845 32 0 0 0 132 0 16777216 0 0 0 0 0 0 655360 0 4 0 0 0 0 0 0 553648128 1074285696 8704 4096 541065216 0 0 0 8388608 0 64 0 0 0 553648128 603979776 2282227712 1048672 71303168 1074270208 0 536870912 268435456 536870912 536870912 0 256 0 32768 268435458 576 4 1704098 24576 738215952 8404993 671096848 0 0 0 16384 260 0 512 131072 0 0 0 134742145 544 4259840 37748800 2128 4194304 6291456 0 0 8388608 536870912 0 0 0 0 524288 0 0 0 0 0 0 0 0 0 0 0 0 0 4325376 1074284544 256 1048640 16 4096 0 0 134217728 33554440 64 0 0 268698112 0 4096 0 16777216 67633152 4194304 0 0 0 65536 536870912 4 0 0 2147483648 0 1048576 2097168 67108864 0 0 0 0 3221225472 512 0 0 268435488 1048608 2147487776 192 268435456 6401 33554432 0 16 1073741824 0 536870912 0 0 0 0 32 1049088 6 83886080 777 536870976 2140 69224464 2768 0 0 0 0 0 524288 128 0 0 0 0 536870912 0 0 0 0 0 0 0 8704 0 8 0 0 0 0 0 0 4 1049888 0 0 0 0 0 1073741824 131072 0 32768 0 40960 32 0 0 268435456 0 1024 0 0 0 0 8 0 1073741824 2147483648 320
is_linear=0
shrinkage=0.05


Tree=8
num_leaves=31
num_cat=10
split_feature=1 4 3 4 3 3 3 5 4 2 5 3 3 5 5 3 2 4 5 4 4 5 3 4 2 3 4 4 4 4
split_gain=1144.41 476.795 275.316 203.547 123.448 110.627 72.7581 67.8182 58.3982 48.6594 40.7577 56.9159 39.5717 37.8087 32.7519 76.0967 30.1235 25.3964 24.2075 20.5325 23.1605 16.8833 16.7545 15.4982 14.608 14.2488 14.1961 11.8334 11.6418 11.2882
threshold=0 140.65500000000003 1 757.95500000000004 2 3 4 0.011879003960451927 134.89500000000001 1.0000000180025095e-35 0.0036860599913056086 5 6 0.025106793081892065 0.016881009019724457 7 1.0000000180025095e-35 140.65500000000003 0.028938554682468118 935.05500000000018 280.59000000000009 0.021616171552232936 8 137.84000000000003 1.0000000180025095e-35 9 1266.4300000000001 140.65500000000003 123.58500000000002 181.57500000000002
decision_type=1 2 9 2 9 9 9 2 2 2 2 9 9 2 2 9 2 2 2 2 2 2 9 2 2 9 2 2 2 2
left_child=3 6 7 5 13 23 -2 12 -7 14 17 -12 -3 -4 25 -16 29 -10 -15 20 -9 -17 -14 28 -8 -5 -11 -25 -1 -6
right_child=1 2 4 9 16 8 24 19 10 26 11 -13 22 18 15 21 -18 -19 -20 -21 -22 -23 -24 27 -26 -27 -28 -29 -30 -31
leaf_value=3.0969956681544222 -1.2939346812172829 14.396858094438057 -0.27701611172036283 1.0545315729499354 4.5768825733706411 -2.9615418394763782 0.8100040590095644 10.250620449365247 0.48740634493400425 3.5870220415776721 1.7488832966403121 -1.1625936550659959 4.6565880547897605 3.0499337612807076 0.03010171541901608 7.3123684235631732 6.8905248071210004 -2.3942186550659983 -0.59767553332840051 8.7342081510512539 8.2971173242649012 2.6382015254732103 0.50514452498753959 -3.8312248313835102 5.659624780727623 -0.55122826967809146 5.9470646912192899 3.1352392474987201 5.4031570405576677 3.5768487873813402
leaf_weight=158 20006 106 9592 9696 3031 61648 10491 3606 3493 314 3464 106444 760 3827 4256 1420 838 88661 1171 451 6480 1471 1565 241 259 9024 236 1724 371 25164
leaf_count=158 20006 106 9592 9696 3031 61648 10491 3606 3493 314 3464 106444 760 3827 4256 1420 838 88661 1171 451 6480 1471 1565 241 259 9024 236 1724 371 25164
internal_value=-0.000948871 0.00407358 0.00679693 -0.00244807 0.00489159 -0.00286348 -0.000937379 0.0131923 -0.00296261 0.00173808 -0.00255174 -0.0019015 0.00567462 0.00113699 0.00142517 0.0043046 0.00677736 -0.00332726 0.00466386 0.0149393 0.0144725 0.0105464 0.00420771 0.00759984 0.00237918 0.000325854 0.0164545 0.00558524 0.0152268 0.00650204
internal_weight=379968 87347 56591 292621 43623 266204 30756 12968 263710 26417 202062 109908 2431 14590 25867 7147 29033 92154 4998 10537 10086 2891 2325 2494 10750 18720 550 1965 529 28195
internal_count=379968 87347 56591 292621 43623 266204 30756 12968 263710 26417 202062 109908 2431 14590 25867 7147 29033 92154 4998 10537 10086 2891 2325 2494 10750 18720 550 1965 529 28195
cat_boundaries=0 1 3 5 7 9 11 13 15 16 18
cat_threshold=1 1179686 17408 1074004241 288 64 4 536888576 2320 2048 72 131072 16384 218646544 1024 1048578 671108096 3092
is_linear=0
shrinkage=0.05


Tree=9
num_leaves=31
num_cat=20
split_feature=5 0 0 0 3 0 4 3 5 4 3 2 0 3 3 0 0 3 4 3 4 0 0 0 4 0 5 3 0 2
split_gain=754.672 290.201 232.608 176.123 132.429 130.94 100.983 83.0655 107.121 61.7426 58.5008 51.6263 56.7531 48.2214 32.4552 27.1076 27.0968 25.2801 22.1635 15.6634 14.5776 13.8836 13.8253 10.8495 10.2782 8.43384 7.47489 6.96861 6.8174 5.8846
threshold=0.021465030436811503 0 1 2 3 4 134.89500000000001 5 0.017466744231142139 792.07000000000005 6 1.0000000180025095e-35 7 8 9 10 11 12 137.84000000000003 13 134.89500000000001 14 15 16 285.94000000000005 17 0.011879003960451927 18 19 1.0000000180025095e-35
decision_type=2 9 9 9 9 9 2 9 2 2 9 2 9 9 9 9 9 9 2 9 2 9 9 9 2 9 2 9 9 2
left_child=2 17 10 13 16 14 15 8 -8 -9 21 12 -6 24 22 -7 -5 18 20 -17 -2 -1 -4 -15 -3 -12 -24 -19 -18 -16
right_child=1 3 5 4 11 6 7 9 -10 -11 25 -13 -14 23 29 19 28 27 -20 -21 -22 -23 26 -25 -26 -27 -28 -29 -30 -31
leaf_value=12.049302638214062 -6.7163845285275618 9.894663957156979 7.8891071583367864 2.8320419252787099 5.9836778888157012 0.060439686907822934 -0.33617719936121482 -1.4544639723126964 6.5195040970427698 0.32741906735070475 -0.24355479215273854 6.5177854475610166 2.9227678574021625 4.9993042002078267 0.7404324456168131 0.28671823780500888 0.27209870365745487 -0.41127444931138479 -3.5396633037120395 -2.4699270149089418 5.1329991885297845 7.6736804358359514 2.3978849916721328 7.1837878043319963 10.046438835033927 3.2201885563384729 5.995323263002927 -1.5912151767456066 -1.5268435087277878 3.0795450787076475
leaf_weight=492 85 482 565 1686 4311 3626 34852 170774 3388 17505 832 1422 37449 327 4221 1153 1921 4911 250 66283 375 1612 1662 774 281 1003 787 11139 5623 177
leaf_count=492 85 482 565 1686 4311 3626 34852 170774 3388 17505 832 1422 37449 327 4221 1153 1921 4911 250 66283 375 1612 1662 774 281 1003 787 11139 5623 177
internal_value=-0.000985847 0.0036611 -0.00205437 0.00543639 0.00489661 -0.00221036 -0.00237391 -0.0018581 0.000266665 -0.00228954 0.0100038 0.00605876 0.00574114 0.0205069 0.00435058 -0.00401846 -0.000541127 -0.00209004 0.00708333 -0.00424458 0.0136957 0.0156954 0.00834325 0.0134968 0.0303169 0.00342818 0.00665108 -0.0025 -0.00182288 0.00160163
internal_weight=379968 71036 308932 54276 52412 304993 297581 226519 38240 188279 3939 43182 41760 1864 7412 71062 9230 16760 710 67436 460 2104 3014 1101 763 1835 2449 16050 7544 4398
internal_count=379968 71036 308932 54276 52412 304993 297581 226519 38240 188279 3939 43182 41760 1864 7412 71062 9230 16760 710 67436 460 2104 3014 1101 763 1835 2449 16050 7544 4398
cat_boundaries=0 26 55 84 86 115 117 119 148 150 152 180 207 208 209 238 266 289 318 320 349
cat_threshold=17039488 2 262144 965243914 879919137 0 131072 0 0 0 0 0 0 0 0 0 0 32 131072 0 0 0 8 0 0 2097152 0 0 0 0 0 3221749760 4194432 2097216 0 0 0 1048624 0 2160623616 6553600 33556480 167772160 0 0 8704 0 16392 0 384 0 0 0 16777216 7 0 0 0 0 0 0 2 64 0 0 0 536870912 67113472 4326400 2105344 1024 1048576 16 0 0 0 0 16384 1 2048 1073741824 0 1048576 4 134349076 17 2097160 71303184 8 0 0 512 2147614720 128 0 4096 1073741824 536870912 2692747776 68 8194 0 1074790400 0 64 0 1572864 0 0 1024 0 0 256 5242880 8 17189618 24590 1068102 16392 4194306 256 0 0 0 134217728 4 128 0 0 262144 1048576 0 134742085 32 34607112 34082816 0 18 12288 65536 0 524288 0 0 0 0 1073741824 524290 536870912 1536 1068102 18456 12582912 536870912 268439552 0 128 0 1073741824 0 0 0 0 0 262400 2048 4352 8 0 2048 16 0 0 536870912 0 0 0 16384 268435457 1536 2097187 675291136 4096 0 0 0 12 0 16 4 268435488 16 256 268439744 64 268441600 0 0 0 6291456 0 0 0 0 1073741824 0 4194304 131136 4 0 0 0 0 0 0 0 64 0 0 0 0 0 4194304 0 33554432 0 0 0 0 0 0 0 0 0 0 0 0 3 0 0 8 0 0 0 0 0 0 0 0 0 536875008 0 8192 0 1048576 0 0 0 0 0 0 0 0 0 0 1048576 0 0 0 0 0 0 0 0 0 0 0 0 0 131072 0 1024 1048576 0 0 0 0 0 16384 0 0 0 0 0 0 0 64 0 0 0 16 0 2152202240 0 33554432 0 0 0 0 0 0 0 0 0 0 0 0 1 526336 3584 540 0 0 0 0 0 2147483648 0 33554432 0 1025 1056768 134217728 134217729 327680 167772168 0 512 0 4096 65536 536870912 67108864 536870912 0 0 256 4194304 16
is_linear=0
shrinkage=0.05


Tree=10
num_leaves=31
num_cat=13
split_feature=1 4 3 4 3 3 3 4 5 2 3 5 3 2 3 5 2 5 4 4 3 3 3 4 4 4 3 4 3 4
split_gain=935.582 385.587 235.405 176.545 91.5093 88.0902 60.3998 55.6945 54.0776 47.0927 38.5834 37.9348 67.593 33.0806 30.7193 29.3488 20.2096 20.0178 19.8392 19.433 17.629 14.5563 13.7608 13.6559 10.2343 10.2153 9.98558 12.5523 18.128 9.82646
threshold=0 140.65500000000003 1 715.05500000000018 2 3 4 134.89500000000001 0.011879003960451927 1.0000000180025095e-35 5 0.016881009019724457 6 1.0000000180025095e-35 7 0.025106793081892065 1.0000000180025095e-35 0.028938554682468118 935.05500000000018 280.59000000000009 8 9 10 1300.2100000000003 181.57500000000002 954.98500000000001 11 134.89500000000001 12 137.84000000000003
decision_type=1 2 9 2 9 9 9 2 2 2 9 2 9 2 9 2 2 2 2 2 9 9 9 2 2 2 9 2 9 2
left_child=3 6 8 5 15 29 -2 -7 10 11 -3 23 -13 14 -9 -4 24 -17 19 -10 -14 -11 -12 -5 -6 -20 -8 28 -28 -1
right_child=1 2 4 9 16 7 26 13 18 21 22 12 20 -15 -16 17 -18 -19 25 -21 -22 -23 -24 -25 -26 -27 27 -29 -30 -31
leaf_value=4.736347967869011 -1.2065402584552516 13.602776260180448 -0.23764324371540937 -0.30529846309156028 4.2105159593570223 -2.7176432607863763 4.0995241809207243 -1.2201595236970606 9.3664294156375618 1.5179025615003188 4.4308814716263543 -0.27957325423027884 8.6348495029686525 2.7125701932706772 -2.0133657736970636 2.6801504010033645 6.2101199235603346 -0.56871539984734321 7.5541495278777377 7.603940114973196 2.0099535578714867 5.0512466910216265 0.48467441961004476 1.7573116664411896 3.2759847367713775 8.0645286217423635 0.55673216934176717 -0.25367032535782447 1.8757855703976476 2.0955758310260424
leaf_weight=530 19207 106 9592 22862 3031 61647 1838 110484 3606 168 760 4831 1254 1631 81126 3827 838 1171 223 6480 2858 443 1565 2673 25164 228 3958 4618 1135 2114
leaf_count=530 19207 106 9592 22862 3031 61647 1838 110484 3606 168 760 4831 1254 1631 81126 3827 838 1171 223 6480 2858 443 1565 2673 25164 228 3958 4618 1135 2114
internal_value=-0.00100967 0.00353149 0.00598054 -0.00236519 0.00421894 -0.00281852 -0.00097477 -0.0029127 0.011894 0.000961981 0.00518099 0.000718138 0.00352063 -0.00249536 -0.00255571 0.0009863 0.00584254 0.00409364 0.013454 0.0129952 0.00822174 0.0147218 0.00373662 -0.000263365 0.00561713 0.023714 0.00188208 0.00123907 0.00295209 0.00624717
internal_weight=379968 87347 56591 292621 43623 257532 30756 254888 12968 35089 2431 34478 8943 193241 191610 14590 29033 4998 10537 10086 4112 611 2325 25535 28195 451 11549 9711 5093 2644
internal_count=379968 87347 56591 292621 43623 257532 30756 254888 12968 35089 2431 34478 8943 193241 191610 14590 29033 4998 10537 10086 4112 611 2325 25535 28195 451 11549 9711 5093 2644
cat_boundaries=0 1 3 5 7 9 11 13 15 17 18 19 21 23
cat_threshold=1 1179686 17408 1074004241 288 576 4 536888576 272 131072 16384 201345040 1024 184698896 3930 1088 64 201326592 1048578 131072 16384 134219776 3072
is_linear=0
shrinkage=0.05


Tree=11
num_leaves=31
num_cat=26
split_feature=1 3 0 5 3 0 3 0 0 0 0 0 0 0 0 0 0 3 0 0 0 0 3 5 0 3 5 5 0 0
split_gain=830.757 301.93 181.11 122.964 103.234 73.6968 71.6906 272.043 114.175 86.1166 69.187 64.6952 66.3532 47.2165 43.9184 40.7698 43.8437 40.8349 38.157 30.3608 22.0535 24.815 20.1361 18.6698 18.1062 17.7351 15.6761 14.7565 14.1794 13.6822
threshold=0 1 2 0.0036860599913056086 3 4 5 6 7 8 9 10 11 12 13 14 15 16 17 18 19 20 21 0.0072797804901125942 22 23 0.027550091074681243 0.019065032067811398 24 25
decision_type=1 9 9 2 9 9 9 9 9 9 9 9 9 9 9 9 9 9 9 9 9 9 9 2 9 9 2 2 9 9
left_child=3 5 19 15 14 -2 7 28 -8 -10 -6 27 -13 -9 23 22 17 24 -7 -3 -20 -22 -1 -5 -17 -18 29 -12 -4 -16
right_child=1 2 6 4 10 18 8 13 9 -11 11 12 -14 -15 26 16 25 -19 20 -21 21 -23 -24 -25 -26 -27 -28 -29 -30 -31
leaf_value=4.0041948806052803 3.6164098080728326 9.7266077495253231 8.3546884484301085 8.5277790162549021 1.9906878656566294 1.8161920279455583 -0.94653847334988517 -1.5405708154667666 7.3554037398514245 2.5380851476501327 0.26646147911799151 0.22529538003047478 -1.6227944441586957 3.9094291845332338 -2.4540862337177929 4.1092278638402133 -1.2867485274298365 -0.86949123501220671 -1.3785599453329382 8.7969787230684737 -1.3962132455324892 0.32238223474421668 0.15969415179121954 2.7965472758607799 0.67330395458632064 -2.7194912350122067 3.3286036733191047 2.6023988495001795 9.9818970169368839 0.89662871729695304
leaf_weight=661 1738 444 781 145 4965 2981 6625 1573 1920 29698 9804 18939 108124 10886 1581 803 30365 6754 7348 2276 8628 10470 2266 2989 966 96202 909 2902 1979 4246
leaf_count=661 1738 444 781 145 4965 2981 6625 1573 1920 29698 9804 18939 108124 10886 1581 803 30365 6754 7348 2276 8628 10470 2266 2989 966 96202 909 2902 1979 4246
internal_value=-0.00103335 0.00324585 0.00543476 -0.00231069 -0.00134227 -0.000701685 0.00479204 0.00769617 0.00363462 0.00488523 -0.00167966 -0.0018858 -0.00222601 0.00453966 0.00360324 -0.00339549 -0.00352184 -4.86359e-05 -0.00129378 0.0180037 -0.00189863 -0.00100168 0.00243956 0.008486 0.00669196 -0.0037557 0.00132226 0.00151541 0.0218773 0.000371545
internal_weight=379968 87347 56182 292621 154604 31165 53462 15219 38243 31618 144734 139769 127063 12459 9870 138017 135090 8523 29427 2720 26446 19098 2927 3134 1769 126567 6736 12706 2760 5827
internal_count=379968 87347 56182 292621 154604 31165 53462 15219 38243 31618 144734 139769 127063 12459 9870 138017 135090 8523 29427 2720 26446 19098 2927 3134 1769 126567 6736 12706 2760 5827
cat_boundaries=0 1 3 32 34 63 65 93 122 150 179 208 234 263 292 321 350 352 380 394 422 450 452 453 455 483 510
cat_threshold=1 1745092881 304 4194304 0 0 0 0 0 4 128 0 0 1879048192 0 512 4326464 6299648 301989896 1048576 16 0 0 0 0 542720 0 16779264 1073741840 0 0 1048579 16779328 76 67108896 16 4096 0 0 2147483648 8 64 0 0 268435457 0 266496 2112 16777218 67700992 1111490560 0 0 0 65536 536870912 0 0 0 2147483648 1 1048576 2 1179810 17408 3162902 8 0 0 0 512 0 0 0 0 67108864 32 536870944 134217729 1376290 7168 33558656 0 0 4096 0 16384 65536 0 0 0 0 553648128 128 2 262152 722119698 375390230 8 2048 0 0 0 1024 0 0 0 0 0 0 0 524288 0 0 0 2 0 1073741824 0 0 0 128 65536 8192 0 0 0 1073741824 8194 64 268435456 0 256 17825792 67113088 8388736 0 138412032 524288 0 64 1073741824 0 538968064 0 257 0 2147516416 268435490 1064960 2097160 71303168 8 0 0 0 2168455298 0 512 0 3072 536870912 0 4100 0 1048576 1073741824 16 32 12801 1048576 0 0 128 32 262144 4194304 0 12 12582930 1073741824 0 0 0 0 0 0 32768 4 33 0 3221225472 524352 20971520 100669440 8405064 1024 0 0 32768 0 8421376 536870913 0 2048 0 1 1024 2214594565 536879104 4096 0 0 0 260 0 33554432 0 0 0 0 671088768 33554944 268500992 39845904 0 4194368 73400320 8388608 0 16 1024 262144 1073741824 917504 2 0 545271808 1048609 0 33581568 0 33554440 0 294912 0 8388608 8388608 0 0 0 0 0 0 2 0 33554436 8224 0 2147500032 0 0 256 7428489 536879104 8 0 0 0 1073758336 0 32768 0 32 0 537133088 0 0 4096 4194304 512 128 0 65536 8 0 0 0 0 4194304 0 4 2149582872 1749032960 0 0 0 524288 16777216 16512 33554433 131072 0 0 0 0 1114112 524288 0 2048 4194304 528640 4194304 268566536 0 0 0 1073741824 32 0 4 134 128 20480 2147483648 128 0 0 1048576 16 1073741824 1 0 32768 128 4 4198400 4194432 16 16 0 33554432 0 545259536 0 0 0 4196352 131104 1048832 18448 3078 18000 67108864 0 0 0 1073741824 1073741824 512 33554440 0 262176 1048608 2155872288 268959873 128 1052680 1048576 0 128 0 0 134217728 4 1 0 0 0 512 0 0 0 0 0 0 0 0 0 0 0 0 0 4325376 5111808 4 524288 729838593 88080389 32 0 0 0 268435588 0 16777216 0 0 0 0 0 4096 655360 0 4 0 0 0 0 0 0 553648128 128 256 0 1342898178 312606736 8388625 0 131072 0 0 33792 0 2048 2147483648 0 0 0 256 0 524288 0 0 2050 0 0 1040 0 128 2115584 2180 128 2307523152 2310 1049088 0 0 0 0 512 0 0 0 0 67108864 0 536870912 134217728 262178 3072 128 0 0 0 0 0 0 0 0 0 0 553648128 917600 4 524288 159399936 276959232 0 0 1049088 8 0 2048 0 2048 0 0 524288 0 0 655360 0 0 0 10 0 1073741824 0 256
is_linear=0
shrinkage=0.05


Tree=12
num_leaves=31
num_cat=24
split_feature=1 4 3 0 4 0 0 3 3 4 3 0 3 5 3 0 0 0 0 0 0 5 0 3 0 3 0 0 0 5
split_gain=741.702 319.174 191.279 240.543 153.881 88.3095 80.5875 73.9331 64.2511 58.3085 57.2094 44.4555 42.9735 38.079 55.2527 36.7513 35.5114 40.7599 35.2832 32.233 31.7294 28.9394 20.1341 18.9197 16.7076 14.4051 13.3901 11.9485 11.9275 8.99544
threshold=0 140.65500000000003 1 2 715.05500000000018 3 4 5 6 134.89500000000001 7 8 9 0.016881009019724457 10 11 12 13 14 15 16 0.030799813798446676 17 18 19 20 21 22 23 0.012429702255894402
decision_type=1 2 9 9 2 9 9 9 9 2 9 9 9 2 9 9 9 9 9 9 9 2 9 9 9 9 9 9 9 2
left_child=4 6 3 21 7 25 -2 -1 22 19 18 -6 -8 23 -15 -10 -11 -18 -7 -9 -12 28 -5 -13 -23 -4 -16 -27 -3 -25
right_child=1 2 5 8 11 10 12 9 15 16 20 13 -14 14 26 -17 17 -19 -20 -21 -22 24 -24 29 -26 27 -28 -29 -30 -31
leaf_value=2.4303564195087262 3.3249160350040996 7.2432198542221276 8.8811119798579199 12.349803018959021 -2.1919556021456206 2.5115048356105687 0.22083976063618993 0.33145211041627176 -1.330599704981811 1.4533166296657358 6.5837494770465588 1.3370905266139699 -1.3447131751640313 0.75396187332957487 2.8033348027591876 4.4139577253065729 0.20873039767397869 -1.5731769857615974 -0.19673539879801819 -2.6355471068673513 2.6241454997485594 9.9508125173020616 9.3986374873868659 0.097484810532701263 8.3503333299441724 2.5536972064567789 7.4106230490418827 6.6263051326684694 10.210750543122515 -0.98079446326035657
leaf_weight=2644 3351 526 636 223 4937 2688 9703 3025 1288 3021 1089 7434 17702 5046 2000 7771 11130 179090 12594 58622 24913 1528 861 10945 843 584 1012 528 519 3715
leaf_count=2644 3351 526 636 223 4937 2688 9703 3025 1288 3021 1089 7434 17702 5046 2000 7771 11130 179090 12594 58622 24913 1528 861 10945 843 584 1012 528 519 3715
internal_value=-0.00104993 0.0029934 0.00522159 0.0103991 -0.00225686 0.00358696 -0.00110645 -0.0026801 0.00651876 -0.00276636 0.00311861 0.00084941 -0.00200164 0.00156952 0.00451228 0.00512791 -0.00233933 -0.0024247 0.000689248 -0.00410539 0.00454559 0.0218681 0.017989 0.000496966 0.0249873 0.0145677 0.00985771 0.0108645 0.015 -0.000545332
internal_weight=379968 87347 56591 13559 292621 43032 30756 257532 10143 254888 41284 35089 27405 30152 8058 9059 193241 190220 15282 61647 26002 3416 1084 22094 2371 1748 3012 1112 1045 14660
internal_count=379968 87347 56591 13559 292621 43032 30756 257532 10143 254888 41284 35089 27405 30152 8058 9059 193241 190220 15282 61647 26002 3416 1084 22094 2371 1748 3012 1112 1045 14660
cat_boundaries=0 1 3 32 60 88 90 92 94 122 124 126 155 182 208 237 259 288 316 318 335 337 365 393 421
cat_threshold=1 1048614 19456 2113558 0 0 0 0 0 4 0 0 0 67108864 32 544 4325377 3219456 301990912 34607104 0 0 4096 0 16384 591872 0 0 0 0 536870912 3 603979776 8192 4096 0 0 0 0 64 0 0 268435456 131072 268439680 12582912 0 302579712 6881280 16 0 0 0 0 0 1 16779264 3221258272 2 1048576 64 24 4096 0 1081344 0 1073741824 128 0 0 0 268435456 536871168 2048 258 8 0 0 16 32768 0 0 0 0 0 0 268435457 1536 576 4 0 16384 1074004305 289 96 512 0 2 0 134217728 1065472 72368640 16400 8192 0 16785408 0 0 4 262144 0 33558528 0 0 4195332 2147483648 262274 0 64 0 32 1024 134875140 19456 151537680 1025 0 514 0 0 0 2147483648 100690432 0 33570952 0 360448 0 67108992 2155872256 0 0 16777216 0 262144 0 0 4096 33554436 536879136 0 2147484672 32 0 256 6 67108864 8 0 0 0 20971650 0 33554433 131076 0 536870912 2147483648 64 16777216 34605056 8388616 16 2 67109376 1048576 268435456 8388608 1024 0 263168 4194304 51201 671096832 0 0 0 0 0 0 512 0 33 0 32768 134742016 37748736 335613952 1077952576 0 112 4194304 0 0 0 536870912 0 1073743872 18032 0 0 0 0 0 8 512 33554432 0 33 32 2147483904 268959809 16777216 68159744 1108344960 0 0 0 8454144 536870912 0 0 0 0 0 0 2 12582912 0 4096 0 128 0 1073741824 128 0 0 0 0 536870912 2048 0 8 0 2048 0 0 0 536870912 65536 0 0 0 0 2147483648 1048578 0 268451848 0 33024 1048576 67108864 1088 8192 134217728 134217728 0 536870976 1073741824 536870912 538968064 2048 260 0 20 32 16384 1048576 2624 0 0 0 0 0 0 64 0 0 268435456 0 0 0 0 0 16777216 0 0 0 0 0 0 0 0 0 0 1048576 134236160 3092 6 0 0 0 0 0 4 0 0 0 0 0 512 4325377 1114112 33554432 1052672 536872000 512 6 1077936128 0 0 0 0 2147483648 0 0 0 2048 0 0 4100 0 4194304 0 0 0 0 0 0 0 0 0 0 0 1 0 0 4096 0 0 0 0 64 0 0 0 0 268439552 0 0 33554432 524288 0 0 0 0 0 0 0 0 0 0 1048576 0 0 0 0 0 0 0 0 0 0 0 0 0 4194304 1114112 1024 33554432 0 0 0 0 0 0 0 0 0 0 536870912
is_linear=0
shrinkage=0.05


Tree=13
num_leaves=31
num_cat=11
split_feature=1 4 3 4 3 3 4 5 3 2 3 5 3 5 3 5 4 5 4 5 5 2 3 5 4 2 3 3 2 4
split_gain=659.158 279.225 173.393 143.243 67.3385 58.3696 58.2486 53.4832 44.0383 39.6679 38.5777 32.883 39.3086 28.115 54.4981 28.5297 26.5249 21.7517 18.3421 18.0012 14.716 14.3828 13.0993 12.2298 12.0661 10.2984 9.89121 8.62744 8.15604 7.16417
threshold=0 140.65500000000003 1 715.05500000000018 2 3 134.89500000000001 0.011879003960451927 4 1.0000000180025095e-35 5 0.0036860599913056086 6 0.016881009019724457 7 0.020906177156177159 140.65500000000003 0.025106793081892065 935.05500000000018 0.020215205103175867 0.028938554682468118 1.0000000180025095e-35 8 0.019798865394533269 1300.2100000000003 1.0000000180025095e-35 9 10 1.0000000180025095e-35 954.98500000000001
decision_type=1 2 9 2 9 9 2 2 9 2 9 2 9 2 9 2 2 2 2 2 2 2 9 2 2 2 9 9 2 2
left_child=3 8 7 4 -1 17 27 10 -2 13 -3 16 -13 24 15 -15 -8 28 19 -9 -19 -7 -11 -16 -5 -10 -12 -6 -4 -20
right_child=1 2 5 9 6 21 11 18 25 22 26 12 -14 14 23 -17 -18 20 29 -21 -22 -23 -24 -25 -26 -27 -28 -29 -30 -31
leaf_value=2.3088385985332893 -1.1100495895076408 12.321634260909667 -0.38204342332694952 -0.33205905830691762 -0.75797145200293281 2.8424419675090551 0.55522951728021464 9.7675204754135336 0.45999312507617929 1.5296372376270693 3.7639439194509685 1.6164538486942359 -0.96093422601619383 11.807459724940617 1.5081771718769155 2.2715771888007716 -1.9764949593526353 2.4603008454370467 6.1798065747719058 6.4453580297676361 -0.62826026308174576 5.5637475462925741 4.5889579450296756 -0.32263991155443977 1.5772188943874674 4.9468207295835116 0.030207413410212491 -2.6803428080814684 2.7285392340781058 7.5345625636139495
leaf_weight=2644 19207 106 9348 22862 6654 27554 3493 2513 11267 168 760 2912 100068 579 1983 1761 86768 3827 223 7957 1171 835 443 4620 2673 282 1818 54993 244 235
leaf_count=2644 19207 106 9348 22862 6654 27554 3493 2513 11267 168 760 2912 100068 579 1983 1761 86768 3827 223 7957 1171 835 443 4620 2673 282 1818 54993 244 235
internal_value=-0.00107533 0.00273638 0.00482046 -0.00221312 -0.00262146 0.00326025 -0.00270379 0.00973719 -0.00109832 0.000783863 0.00342027 -0.00227698 -0.00166634 0.000560066 0.00297271 0.00951064 -0.00297366 0.000688355 0.0112976 0.0108691 0.00336334 0.00458132 0.0134124 0.000640404 -0.000284904 0.00134138 0.00212906 -0.00404213 -0.000704755 0.0210917
internal_weight=379968 87347 56591 292621 257532 42979 254888 13612 30756 35089 2684 193241 102980 34478 8943 2340 90261 14590 10928 10470 4998 28389 611 6603 25535 11549 2578 61647 9592 458
internal_count=379968 87347 56591 292621 257532 42979 254888 13612 30756 35089 2684 193241 102980 34478 8943 2340 90261 14590 10928 10470 4998 28389 611 6603 25535 11549 2578 61647 9592 458
cat_boundaries=0 1 3 5 7 9 11 13 15 16 17 19
cat_threshold=1 1179686 19456 576 4 1074004241 288 536888576 272 131072 16384 2048 72 536872000 576 201326592 1048578 86515712 16482
is_linear=0
shrinkage=0.05


Tree=14
num_leaves=31
num_cat=13
split_feature=1 4 4 0 0 0 0 4 5 0 0 0 2 5 0 5 0 0 5 4 5 2 4 0 5 5 5 5 5 0
split_gain=594.614 248.54 134.119 123.149 71.7455 68.5136 66.3559 64.2961 40.4552 50.9344 40.7473 39.7364 47.3106 36.4819 27.2607 24.636 19.7356 18.0663 17.3562 14.0607 12.3409 11.5486 9.5804 6.81346 6.19722 11.1553 5.49393 13.4288 8.06531 5.2683
threshold=0 140.65500000000003 715.05500000000018 1 2 3 4 134.89500000000001 0.017466744231142139 5 6 7 1.0000000180025095e-35 0.041964601744131004 8 0.016881009019724457 9 10 0.02046049188906332 137.84000000000003 0.041964601744131004 1.0000000180025095e-35 1300.2100000000003 11 0.038713078400363608 0.030799813798446676 0.017466744231142139 0.017560992324561406 0.015033952766901016 12
decision_type=1 2 2 9 9 9 9 2 2 9 9 9 2 2 9 2 9 9 2 2 2 2 2 9 2 2 2 2 2 9
left_child=2 4 6 16 23 -5 20 17 10 -10 -7 -4 15 14 -9 22 -3 -8 -17 -15 -1 26 -13 -2 25 -18 28 -28 -6 -14
right_child=1 3 11 5 21 8 7 13 9 -11 -12 12 29 19 -16 18 24 -19 -20 -21 -22 -23 -24 -25 -26 -27 27 -29 -30 -31
leaf_value=0.97963722709991008 5.2850762466738308 8.9188498082625394 -2.0878346916774446 -1.2306930069600428 -0.3832531939680095 4.2116916693650941 0.22295072755812631 -2.593432480648393 6.0552046444245189 3.2597648357174727 0.89682030352088293 -0.038767699310242043 2.7581771270369622 4.2627447160147041 -1.1754100425019047 3.0879471566745478 7.7321517521639196 -2.4071520157624167 0.97122490922643712 1.6658419178110986 4.6965868098164325 2.69834926116045 1.5966490631883206 2.5659688458498486 4.8422525429914058 8.4279288825779854 3.0090395796323151 -0.80443759715209218 -1.2545471100322587 4.7297349211255399
leaf_weight=5982 730 338 4937 2991 5262 3120 1989 14497 4034 28743 15544 19383 102 346 174493 2677 1196 58505 5141 1557 163 484 2493 2621 270 355 1674 11807 8178 356
leaf_count=5982 730 338 4937 2991 5262 3120 1989 14497 4034 28743 15544 19383 102 346 174493 2677 1196 58505 5141 1557 163 484 2493 2621 270 355 1674 11807 8178 356
internal_value=-0.00106822 0.00255206 -0.00214887 0.0045183 -0.00106581 0.00405092 -0.002544 -0.00266942 0.00447892 0.00553788 0.00262162 0.000751089 0.00143193 -0.00221939 -0.00228875 0.00118643 0.0162079 -0.00408999 0.00359555 0.00466894 0.00258733 -0.00191045 0.00032547 0.00583011 0.0139514 0.015245 -0.00204877 -0.00133558 -0.00276414 0.0173799
internal_weight=379968 87347 292621 56591 30756 54432 257532 251387 51441 32777 18664 35089 30152 190893 188990 29694 2159 60494 7818 1903 6145 27405 21876 3351 1821 1551 26921 13481 13440 458
internal_count=379968 87347 292621 56591 30756 54432 257532 251387 51441 32777 18664 35089 30152 190893 188990 29694 2159 60494 7818 1903 6145 27405 21876 3351 1821 1551 26921 13481 13440 458
cat_boundaries=0 1 30 58 87 114 143 172 200 229 243 265 281 306
cat_threshold=1 536870912 0 0 0 0 0 12 0 0 0 1342177280 131072 512 4329476 6299648 302055680 1064960 0 0 268435456 4194304 0 2048 257 16779264 1073774592 0 0 1048577 96 24 268439552 0 0 0 1073741824 128 0 0 0 268435456 536871168 2048 258 8 0 0 16 32768 0 0 0 0 0 16384 268435457 512 0 6 524288 524306 77725718 16 2560 0 0 128 1024 0 0 0 512 0 0 288 655360 536870913 4 2147483648 2 0 0 2097152 0 0 128 12582918 603979776 8 0 0 0 20971650 128 33554432 131072 32 536870912 0 64 0 1054720 8405000 2048 0 67109376 1048576 0 0 0 0 1074004992 4194304 2097158 4194304 4096 0 0 0 2 64 0 0 536870912 0 4096 525504 327712 526337 528384 16 0 1073745920 0 536870912 0 0 0 2147483648 0 1064960 524290 67109888 0 0 0 0 8389120 4194304 2097152 1 0 536870912 48 8388608 2156396609 0 71305216 1207959552 16 0 0 536936448 536870912 262144 0 0 0 256 553648128 2 96 512 0 2 0 134217728 1065472 72368640 16400 8192 0 16785408 0 0 4 262144 0 33558528 0 0 4195332 2147483648 262274 0 64 0 32 1024 0 6 524288 16 77725716 0 0 0 8 256 0 0 264192 512 0 0 0 256 524288 16 67108866 4194432 33628160 32 1024 0 67108864 536870912 20608 0 0 0 0 0 0 0 0 0 0 0 0 0 4194304 0 0 4096 0 136 0 1073741824 0 0 0 0 0 536870912 0 2 8 0 0 32 0 0 536870912 0 16 4096 0 0 0 0 128 0 0 0 0 0 0 0 8 8 0 0 0 0 0 0 0 0 0 0 0 0 36864 0 4194304 0 0 0 0 0 0 0 0 32768
is_linear=0
shrinkage=0.05


Tree=15
num_leaves=31
num_cat=12
split_feature=1 4 3 4 4 3 4 3 5 3 3 2 2 3 5 4 3 5 5 5 5 5 3 5 2 3 4 3 5 3
split_gain=527.669 222.525 154.893 123.735 68.3323 51.245 62.6921 50.778 45.0492 38.7392 37.2606 31.5284 28.25 26.7487 24.698 20.1623 18.4728 29.3962 23.1903 18.0642 15.681 15.2828 13.1493 12.4611 10.7622 10.1123 9.4312 9.39436 8.71031 8.17964
threshold=0 140.65500000000003 1 792.07000000000005 134.89500000000001 2 137.84000000000003 3 0.011879003960451927 4 5 1.0000000180025095e-35 1.0000000180025095e-35 6 0.0047012734419031284 935.05500000000018 7 0.020011123470522807 0.020906177156177159 0.020215205103175867 0.025106793081892065 0.007434080467421421 8 0.028938554682468118 1.0000000180025095e-35 9 1811.2700000000002 10 0.031320235105562678 11
decision_type=1 2 9 2 2 9 2 9 2 9 9 2 2 9 2 2 9 2 2 2 2 2 9 2 2 9 2 9 2 9
left_child=3 9 8 4 22 6 21 20 10 -2 -3 13 16 -7 -8 19 17 -5 -19 -10 -4 -6 -1 -22 -9 -14 28 -13 -18 -12
right_child=1 2 7 12 5 11 14 24 15 -11 29 27 25 -15 -16 -17 26 18 -20 -21 23 -23 -24 -25 -26 -27 -28 -29 -30 -31
leaf_value=-0.54971527861466574 -1.0418197545306456 11.489827563665166 -0.30294190897988504 0.71095472754480371 10.811352272111163 -2.2348019125283671 -1.4460993604074872 2.5374184258429824 9.0976651148864836 0.50929626897150637 3.466646055963797 4.2067874423408638 1.94229980521285 -1.0460993604074873 1.3556413786736854 6.3787440592292413 -0.01576868895439246 11.60680206108159 2.3503495822912028 5.876088559995118 2.1742975613793205 3.5385969219733386 -2.4205456490142594 -0.76258595225768544 5.1283369743509999 4.5425619642660404 2.180765242322392 1.3480638532136524 1.7445645914404737 -0.041066896236008905
leaf_weight=6080 19207 106 10066 3420 210 32361 5574 27082 2513 11549 760 584 150 160036 4598 458 19579 430 635 7957 3827 553 55728 1171 833 359 695 1091 538 1818
leaf_count=6080 19207 106 10066 3420 210 32361 5574 27082 2513 11549 760 584 150 160036 4598 458 19579 430 635 7957 3827 553 55728 1171 833 359 695 1091 538 1818
internal_value=-0.00107243 0.00233797 0.00419846 -0.00209044 -0.00241019 -0.00197084 0.00135907 0.00272407 0.00884525 -0.00108532 0.00304769 -0.00215842 0.00121561 -0.00221799 0.000323436 0.0102773 0.000980945 0.00388765 0.0111502 0.00982808 0.00038344 0.0151835 -0.00386746 0.00267307 0.00398657 0.0128782 0.000352511 0.00467164 0.000154843 0.0017813
internal_weight=379968 87347 56591 292621 266815 205007 10935 42979 13612 30756 2684 194072 25806 192397 10172 10928 25297 4485 1065 10470 15064 763 61808 4998 27915 509 20812 1675 20117 2578
internal_count=379968 87347 56591 292621 266815 205007 10935 42979 13612 30756 2684 194072 25806 192397 10172 10928 25297 4485 1065 10470 15064 763 61808 4998 27915 509 20812 1675 20117 2578
cat_boundaries=0 1 3 5 7 9 11 13 15 17 18 20 21
cat_threshold=1 1179686 19456 16779840 70 1074004241 289 536888576 272 131072 16384 78655885 16544 1360 2132 86515776 70 201326592 540672 1552 1048578
is_linear=0
shrinkage=0.05


Tree=16
num_leaves=31
num_cat=26
split_feature=1 3 0 5 0 3 0 0 0 3 3 0 0 0 0 2 3 0 0 3 0 3 3 5 3 0 0 0 5 0
split_gain=475.008 180.056 135.136 102.761 73.4529 68.5987 50.1676 48.4729 48.1374 47.5509 41.259 37.9688 53.5674 37.8455 36.0808 32.9952 32.6996 32.2176 30.7878 29.8057 26.7382 21.0876 17.2528 16.945 15.4042 14.4768 13.9374 12.7204 12.1172 11.5476
threshold=0 1 2 0.0036860599913056086 3 4 5 6 7 8 9 10 11 12 13 1.0000000180025095e-35 14 15 16 17 18 19 20 0.0072797804901125942 21 22 23 24 0.027550091074681243 25
decision_type=1 9 9 2 9 9 9 9 9 9 9 9 9 9 9 2 9 9 9 9 9 9 9 2 9 9 9 9 2 9
left_child=3 6 22 11 10 13 -2 -7 9 -6 18 21 16 23 -9 -16 24 -10 -4 -14 -8 -1 29 -5 -13 -22 -24 -12 -15 -3
right_child=1 2 4 5 8 7 20 14 17 -11 27 12 19 28 15 -17 -18 -19 -20 -21 25 -23 26 -25 -26 -27 -28 -29 -30 -31
leaf_value=3.0914980607415394 3.1667779660904487 6.6187897733952727 8.140547107031102 7.5492835891472794 8.2062009689509239 1.7419358606775359 -1.0897287668041131 -2.6725338775295295 4.2237376230028731 2.6972998649912916 1.212447280645121 7.9219282781378091 -0.7132453994569119 -0.042695090817360865 -0.71442579839786946 2.7422151810558137 -0.59868995208601494 1.0791041899174858 5.4373725727570568 -2.2562550537395354 1.4731587581009313 -0.12268712373083886 3.8251245889990964 2.3203202222056527 1.3136576626097698 -0.42966216934631096 8.536457300660226 4.0185416028862821 2.7017095396557114 8.6114725207889151
leaf_weight=978 1600 239 734 146 1372 4474 7618 9206 4486 4061 1482 380 23007 5769 129176 1878 7796 38430 1570 101491 2627 2032 546 2938 2333 19256 625 1982 1017 719
leaf_count=978 1600 239 734 146 1372 4474 7618 9206 4486 4061 1482 380 23007 5769 129176 1878 7796 38430 1570 101491 2627 2032 546 2938 2333 19256 625 1982 1017 719
internal_value=-0.00107638 0.00215937 0.00384706 -0.00204225 0.00335904 -0.00115696 -0.000893737 -0.00143198 0.00272142 0.00715322 0.00868986 -0.00303394 -0.00315764 0.00287449 -0.0015955 -0.00138268 0.000271412 0.00215883 0.013885 -0.00344709 -0.00136237 0.00251656 0.0161781 0.0074596 0.00498898 -0.00047344 0.0118078 0.00520437 0.000782812 0.021343
internal_weight=379968 87347 56246 292621 54117 154604 31101 144734 48349 5433 5768 138017 135007 9870 140260 131054 10509 42916 2304 124498 29501 3010 2129 3084 2713 21883 1171 3464 6786 958
internal_count=379968 87347 56246 292621 54117 154604 31101 144734 48349 5433 5768 138017 135007 9870 140260 131054 10509 42916 2304 124498 29501 3010 2129 3084 2713 21883 1171 3464 6786 958
cat_boundaries=0 1 3 32 61 63 91 120 148 150 152 181 210 239 268 270 298 313 315 343 345 347 348 377 406 421 444
cat_threshold=1 671351057 304 4194304 0 0 0 0 0 4 128 0 0 1879048448 0 512 4326404 2105344 301989888 1052672 0 64 268439552 4194304 0 2048 257 16779264 1073741840 268435456 16777216 1 2097158 541065216 0 0 0 8389120 1073741824 64 0 0 0 553648160 536870912 65 4259840 9 0 16 0 1073741824 536870912 536870912 16384 0 0 0 2 0 1572870 16779328 76 67109920 16 4096 0 0 2147483648 8 0 0 0 268435488 1048576 8655104 2112 16777218 67700992 37748736 0 0 0 65536 536870912 0 0 0 2147483648 1 1048576 10485760 71303168 8 0 0 0 2168455298 0 512 0 2048 536870912 2147483648 4100 0 1048576 1073741824 16 32 12800 1048576 0 32768 128 32 262144 4194304 1 12 257 8 0 0 0 0 4325386 0 268435456 0 0 0 0 134217856 1310720 4197376 33570880 65536 536870930 0 0 4210688 327680 0 262144 32896 32 1075838976 0 17920 1048646 17920 2099224 1749033472 0 0 0 524288 0 16512 33554433 0 512 0 0 0 1114112 0 128 2048 4194304 790784 0 268566536 0 0 0 1073741824 32 0 4 1158 0 151552 2147483648 0 0 16777216 0 16 268566528 0 0 32768 128 4 4718592 4194304 16 16 0 4259840 536870912 545259536 1 0 0 4194304 1073741856 1048832 7424393 536879104 8 0 0 0 3221241984 0 32768 0 32 0 536870944 0 0 4096 4194304 512 128 0 65536 8 0 1024 0 0 4194304 0 4 917504 516 524288 33726464 69339140 134217856 512 67108864 268435464 0 32768 0 2048 0 0 0 0 4096 0 268435456 4194304 0 33619968 4 1024 0 0 0 128 19536 3078 67129392 8208 4224 0 0 2147500032 0 0 0 0 0 269484032 67112960 524288 64 2214592512 524288 2 0 0 0 524288 532480 4 0 2147745792 536870912 537935872 6 0 0 0 0 0 0 0 0 0 0 0 0 1 65536 2164916816 2310 5111808 4 524288 696284160 339869701 32 0 0 0 268435588 0 16777216 0 0 0 0 0 4096 655360 0 4 0 0 0 0 0 0 553648128 136333316 2692 0 17408 2064 2097232 67108864 268435456 0 0 1073741824 1073750016 512 33554432 0 1 32 2147483680 268435585 268435456 4097 1074790400 0 4194304 0 0 134217728 4 1 0 0 32 512 6 0 0 0 0 0 0 4 0 0 0 0 0 512 131072 0 0 1052672 0 0 4096 4194304 0 2048 0 0 16 0 16777216 1 6 0 0 0 0 0 0 0 0 0 0 0 0 0 65536 0 0 0 0 0 0 0 128 0 0 1879048192 0 0 0 2105344 268435456 0 0 0 0 0 0 2048
is_linear=0
shrinkage=0.05


Tree=17
num_leaves=31
num_cat=24
split_feature=1 3 0 5 0 3 0 0 0 0 3 0 3 0 0 0 3 3 3 0 5 3 0 0 0 3 5 5 2 5
split_gain=433.471 162.649 123.366 101.616 73.3558 60.9825 46.963 44.9143 48.3543 59.4159 40.763 38.0835 41.2084 37.2642 43.1401 33.6399 32.9198 31.5325 29.1625 24.9432 22.2463 18.7195 18.6448 13.7972 13.635 13.4164 11.9969 13.1521 11.3629 9.944
threshold=0 1 2 0.0036860599913056086 3 4 5 6 7 8 9 10 11 12 13 14 15 16 17 18 0.0039493635373828561 19 20 21 22 23 0.038713078400363608 0.030799813798446676 1.0000000180025095e-35 0.027550091074681243
decision_type=1 9 9 2 9 9 9 9 9 9 9 9 9 9 9 9 9 9 9 9 2 9 9 9 9 9 2 2 2 2
left_child=3 6 26 13 10 15 -2 -7 25 -10 -4 12 -6 21 17 -5 -13 22 -16 -8 -12 -1 -15 -21 -20 -9 27 -3 -25 -17
right_child=1 2 4 5 11 7 19 8 9 -11 20 16 -14 14 18 29 -18 -19 24 23 -22 -23 -24 28 -26 -27 -28 -29 -30 -31
leaf_value=-0.58119564174443827 3.008898833192907 8.00474971047311 2.8235981724997523 2.4607602313963586 2.5071144717594525 1.7409720502596651 -1.0852423284639074 1.7577110928201134 0.26238823728824134 -1.305021944428377 2.9705375709741677 5.3240964885529962 7.7661865857336583 3.871659942060246 -0.68093247126668788 -0.2547906867559841 1.0251489804216121 -0.55558798065007131 -0.052357633337308231 1.3129250970071524 7.1011168256717063 2.3168475206064238 0.566102238815549 -0.50817906087899589 -2.1607201356514234 0.097661632254538236 4.3509776868659662 8.2592956966007147 2.9998415899264348 2.389826357001823
leaf_weight=1646 1580 931 3641 3736 3714 4910 7141 4831 20309 106195 451 3625 1389 827 23072 5190 39458 7156 2737 2833 2070 1661 1064 19216 99854 8489 281 622 395 944
leaf_count=1646 1580 931 3641 3736 3714 4910 7141 4831 20309 106195 451 3625 1389 827 23072 5190 39458 7156 2737 2833 2070 1661 1064 19216 99854 8489 281 622 395 944
internal_value=-0.00108164 0.0020094 0.00361599 -0.00200432 0.00318371 -0.00112397 -0.000887732 -0.00138327 -0.00154841 -0.00185015 0.00831821 0.00252552 0.00660767 -0.00299047 -0.00311906 0.00267712 0.00204059 0.000216958 -0.00335924 -0.00133722 0.0132141 0.00225053 0.00594161 -0.000517504 -0.00372077 0.00131658 0.0163395 0.0181487 -0.000988993 0.000395507
internal_weight=379968 87347 56182 292621 54348 154604 31165 144734 139824 126504 6162 48186 5103 138017 134710 9870 43083 9047 125663 29585 2521 3307 1891 22444 102591 13320 1834 1553 19611 6134
internal_count=379968 87347 56182 292621 54348 154604 31165 144734 139824 126504 6162 48186 5103 138017 134710 9870 43083 9047 125663 29585 2521 3307 1891 22444 102591 13320 1834 1553 19611 6134
cat_boundaries=0 1 3 32 61 63 91 120 149 176 178 206 208 237 266 295 297 299 301 329 331 332 361 389 391
cat_threshold=1 1745092881 304 4194304 541065216 0 0 0 8388608 0 128 0 0 1610612992 0 512 4326404 2105344 301989888 1052672 16 64 1342181376 541065216 0 0 256 16777216 1073741840 268435456 0 1 2097158 0 0 0 0 0 1073741830 64 268435456 0 268435456 553648160 536870912 129 4521984 9 0 0 0 0 0 536870912 18432 1 2048 128 2 16777216 1572870 16779328 76 67109936 16 4096 0 0 2147483648 8 512 0 0 268435488 0 8655104 2112 16777218 67700992 37748736 0 0 0 65536 536870912 0 0 0 2147483648 1 1048576 2097160 71303168 8 0 0 0 4194434 0 512 0 3072 536870912 0 4100 0 1048576 1073741824 1040 32 12800 1081344 0 32768 128 32 262144 4194304 1 12 12582931 1073741824 0 0 0 0 2147483648 0 32768 0 1 0 1077936128 524352 16777216 100734976 10502216 0 0 1 0 0 8388608 536871937 0 2048 0 0 1024 51204 536879104 4096 0 0 0 16777220 128 1 4 32 0 2348810240 671088769 4194304 268960768 4194304 0 0 4194304 8388608 536870912 16 0 0 0 256 543872 10240 1 8 0 0 0 512 4325384 0 0 0 0 0 67108864 134217792 1048576 2151681024 33570880 0 536870930 0 0 4210688 327680 0 262144 32768 32 1073741824 543748 10240 2099224 1749033472 0 0 0 524288 0 16512 33554433 0 0 0 0 0 1114112 0 128 2048 16 790784 0 131080 0 0 0 1073741824 32 131072 4 130 0 20480 2147483648 0 0 16777216 0 16 1342308352 513 0 32768 128 4 4718592 4194304 16 4194304 0 4259840 805306368 545259520 1 0 0 4194304 0 1048832 7424395 536879104 8 0 0 0 2148024448 0 32768 0 32 0 537133088 0 0 4096 4194304 512 128 0 65536 8 0 1024 0 0 4194304 0 4 1179682 24576 18512 1038 2164916816 2310 5111808 4 524288 696284160 71434245 32 0 0 0 268435588 0 16777216 0 0 0 0 0 4096 524288 0 4 0 0 0 0 0 0 553648128 554180624 17690 128 3162176 67108864 268435456 0 0 0 3221225472 0 8 0 257 1048608 2147483680 268435585 268435456 1052673 1048576 0 4194304 1073745920 0 134217728 4 1 0 0 32 0 2 2147517444 524288 131072 0 128 16384 1056768 1048576 512 536870912 1073742848 0 32 0 0 201330688 0 16448 0 1074790400 33554432 134217728 16400 0 0 32 64 1073758720 536888336 3088
is_linear=0
shrinkage=0.05


Tree=18
num_leaves=31
num_cat=12
split_feature=1 4 3 4 4 3 3 5 3 3 3 5 3 5 4 5 2 2 3 5 5 3 5 3 2 4 3 4 4 2
split_gain=395.4 179.813 113.572 105.047 63.2345 38.7601 37.6576 33.6275 37.5681 30.2592 25.9654 25.9239 44.8043 23.1894 18.058 17.9411 15.8878 14.698 13.9202 12.5226 10.7699 10.333 9.90764 14.0571 9.76523 9.41003 8.01935 8.84425 7.00769 6.92182
threshold=0 140.65500000000003 1 612.65500000000009 134.89500000000001 2 3 0.011879003960451927 4 5 6 0.016881009019724457 7 0.0058497536945812815 935.05500000000018 0.020215205103175867 1.0000000180025095e-35 1.0000000180025095e-35 8 0.025106793081892065 0.028938554682468118 9 0.031765081911733377 10 1.0000000180025095e-35 879.95000000000016 11 109.06500000000001 954.98500000000001 1.0000000180025095e-35
decision_type=1 2 9 2 2 9 9 2 9 9 9 2 9 2 2 2 2 2 9 2 2 9 2 9 2 2 9 2 2 2
left_child=3 9 7 4 18 10 19 8 -3 -2 -6 17 -13 -7 15 -9 -12 21 -1 -4 -21 -5 23 -14 -8 -23 -11 -28 -16 -29
right_child=1 2 6 11 5 13 24 14 -10 26 16 12 22 -15 28 -17 -18 -19 -20 20 -22 25 -24 -25 -26 -27 27 29 -30 -31
leaf_value=-0.50252062114775242 -0.93098021204071135 10.508870267537043 -0.29569741413232797 2.6632722968704008 1.7388844721053471 -1.9646737187848247 2.2172812519721945 8.2488397459432719 0.99108463486233989 0.024338580532911182 -0.68582255164905681 -0.15121289345892497 10.348782874359351 -0.86117934492859982 4.4870356142154808 5.1472177806063044 2.821717990960618 3.2072624756567181 -2.1302029690196407 1.9460812876168647 -0.77088701663942261 -0.73773604080638777 1.0970261374414836 2.1223837414503128 4.7540861137537371 0.086600525344502452 4.0578876622485316 1.7116063099842145 5.7881581242313453 7.0261182826704873
leaf_weight=6803 19849 106 10120 885 2398 53973 27029 2513 2578 7965 97576 5982 625 35684 223 7957 909 305 55005 3827 1171 12035 1167 2642 832 16632 154 2691 235 97
leaf_count=6803 19849 106 10120 885 2398 53973 27029 2513 2578 7965 97576 5982 625 35684 223 7957 909 305 55005 3827 1171 12035 1167 2642 832 16632 154 2691 235 97
internal_value=-0.00108704 0.00186515 0.00353758 -0.00196826 -0.00234672 -0.00189593 0.00227512 0.00751652 0.00250745 -0.00121212 -0.00122323 0.000403122 0.00255088 -0.00265243 0.00875366 0.00832856 -0.00134855 -0.000346151 -0.00373641 0.00026507 0.00231292 -0.000458853 0.00635238 0.00777931 0.00336532 -0.000623672 0.000903635 0.00313008 0.0184716 0.00249641
internal_weight=379968 87347 56591 292621 252348 190540 42979 13612 2684 30756 100883 40273 10416 89657 10928 10470 98485 29857 61808 15118 4998 29552 4434 3267 27861 28667 10907 2942 458 2788
internal_count=379968 87347 56591 292621 252348 190540 42979 13612 2684 30756 100883 40273 10416 89657 10928 10470 98485 29857 61808 15118 4998 29552 4434 3267 27861 28667 10907 2942 458 2788
cat_boundaries=0 1 3 5 7 9 11 13 15 17 19 20 22
cat_threshold=1 1179686 19456 185076304 3918 1074004241 291 131072 16384 536888576 784 576 4 218122512 3072 86515776 16454 0 2068 1024 134219780 3072
is_linear=0
shrinkage=0.05


Tree=19
num_leaves=31
num_cat=23
split_feature=1 4 3 0 4 0 3 0 4 0 0 3 0 0 0 3 0 0 5 0 0 3 3 5 3 3 0 5 5 3
split_gain=354.838 162.69 101.028 164.519 96.9668 65.1099 61.0364 60.757 60.2382 56.8758 40.9545 35.7075 49.9583 34.8219 38.3843 29.7919 25.4357 24.3898 21.5788 20.9148 18.7316 16.146 16.0419 14.147 13.8233 12.4759 11.4878 10.2248 29.9188 7.9027
threshold=0 140.65500000000003 1 2 612.65500000000009 3 4 5 134.89500000000001 6 7 8 9 10 11 12 13 14 0.030799813798446676 15 16 17 18 0.022039563634270256 19 20 21 0.020011123470522807 0.02046049188906332 22
decision_type=1 2 9 9 2 9 9 9 2 9 9 9 9 9 9 9 9 9 2 9 9 9 9 2 9 9 9 2 2 9
left_child=4 9 3 18 5 22 19 25 20 -2 -6 16 -13 -9 -15 -11 -10 -8 26 -5 -7 27 -1 -23 -22 -4 -3 -12 -29 -17
right_child=1 2 7 6 10 8 17 13 11 15 21 12 -14 14 -16 29 -18 -19 -20 -21 24 23 -24 -25 -26 -27 -28 28 -30 -31
leaf_value=3.2907162473175897 2.8172162219434798 5.1075173800089217 3.1052410903322731 -2.1945374547773122 -1.7734029527506427 0.45259971756499529 4.5898176377178359 -1.1799626579541589 0.57359590803617555 -1.0779687371147149 0.90516620451473395 0.38677250402027591 -1.7664400328455834 -0.45552921656473161 1.8234057815226121 1.9273824377793902 -0.76947640904503545 9.436397758646109 7.2511835483679024 2.4814427948095261 -0.47214682103261424 -0.17924435314327547 0.63147154048962428 1.5669860220160063 -2.1353111157969891 6.0318127773711119 7.5003572897051711 10.032339833782716 1.3397354036085767 -0.24508459556702322
leaf_weight=332 3291 510 804 1524 6331 1957 791 3207 8384 15386 11093 9079 80548 8127 29652 2596 85570 1379 2193 6803 5348 17296 7981 2636 53149 1189 412 577 2340 9483
leaf_count=332 3291 510 804 1524 6331 1957 791 3207 8384 15386 11093 9079 80548 8127 29652 2596 85570 1379 2193 6803 5348 17296 7981 2636 53149 1189 412 577 2340 9483
internal_value=-0.0010752 0.00172147 0.00331227 0.00706504 -0.00191 -0.00227361 0.00406063 0.00212159 -0.00242179 -0.00120562 0.00036836 -0.00197109 -0.00268511 0.00170553 0.00213038 -0.00194996 -0.00128954 0.0115138 0.017144 0.00210687 -0.00379082 0.00105708 0.00207677 0.000142412 -0.00395141 0.0106266 0.0107809 0.00235735 0.00499314 -9.05794e-05
internal_weight=379968 87347 56591 13612 292621 252348 10497 42979 244035 30756 40273 183581 89627 40986 37779 27465 93954 2170 3115 8327 60454 33942 8313 19932 58497 1993 922 14010 2917 12079
internal_count=379968 87347 56591 13612 292621 252348 10497 42979 244035 30756 40273 183581 89627 40986 37779 27465 93954 2170 3115 8327 60454 33942 8313 19932 58497 1993 922 14010 2917 12079
cat_boundaries=0 1 3 32 59 61 89 117 144 146 174 203 232 234 262 290 319 341 343 344 346 348 365 367
cat_threshold=1 1179686 19456 3162134 0 0 0 0 0 4 0 0 0 536870912 32 544 4325377 3473408 301997056 34607232 0 16 4096 0 16384 65536 0 0 0 0 0 1 12601346 603987968 8 0 0 0 130 128 512 131076 0 0 2147516416 64 16777216 33560576 8388616 2048 34 0 0 268435456 0 1024 0 1073742848 4194304 1048578 3072 0 8192 0 0 0 0 8 64 16384 0 268435456 131072 4096 4194304 4194304 306708480 2097152 134217744 64 1073741824 0 536870912 0 256 16777216 3221258240 34 1048576 8388672 24 268439552 0 0 0 1073741824 128 0 0 0 0 536871168 2048 258 8 0 0 16 32768 0 0 0 0 0 0 268435457 512 32 512 0 50 0 134217744 1065472 68157440 16384 8192 32768 16785408 0 0 0 262144 0 33554464 0 536870912 541066244 2147483648 327810 0 64 0 32 185076288 3918 34304 134217728 4160 0 0 0 0 32 0 0 1073742081 0 67108896 0 262144 67110144 1077936128 16 16 786432 65536 541196288 8405008 1 0 0 0 16384 0 2147483654 524288 2148007954 77725718 0 2048 0 0 128 3072 0 0 0 512 0 16777216 256 655360 1 4 2147500032 2 0 0 0 0 1073741952 128 2052 1073741824 0 0 0 134217744 1 67110912 0 268472324 67109376 0 2080 131072 268435456 1048576 0 4128 0 0 2 0 8 33554432 1073741824 1024 4194304 0 16 17408 784 4097 134217856 16384 2147483648 0 0 1090519044 0 1 268435456 536870912 32768 1208221696 134742145 4194304 268435456 2097216 16400 80 0 0 0 0 536870913 0 0 256 1073741824 4096 2 0 0 0 134217728 0 2048 0 32768 0 1048576 2048 128 0 0 0 4096 262144 0 2 0 0 0 0 0 448 541065344 32768 514 0 0 0 1073741824 33581568 64 33570824 0 294912 0 75497600 8388608 0 128 16777216 0 0 0 2 0 234881028 536879136 0 2147484672 0 0 256 0 0 4096 0 136 0 1073741824 0 0 0 0 0 536870912 0 2 8 0 0 0 0 0 536870912 536874320 3156 2097232 17301504 4 18688 274 0 0 0 0 0 0 0 0 0 0 0 0 0 4194304 1114112 1024 33554432 655360 16384
is_linear=0
shrinkage=0.05


Tree=20
num_leaves=31
num_cat=22
split_feature=5 3 0 4 4 0 2 3 0 0 0 0 0 5 0 0 3 3 3 3 0 0 3 3 5 5 5 0 0 0
split_gain=297.209 178.257 124.953 81.4858 72.654 60.5855 43.4291 40.2947 38.2775 36.9821 36.229 34.7794 25.2635 25.1369 35.0166 28.7142 23.2135 23.0869 18.7404 14.6434 12.3109 9.46654 10.1217 7.95295 7.66014 7.54326 7.3333 6.63487 6.11675 6.03489
threshold=0.017192785101269221 0 1 134.89500000000001 193.66000000000003 2 1.0000000180025095e-35 3 4 5 6 7 8 0.017978580132110566 9 10 11 12 13 14 15 16 17 18 0.011879003960451927 0.024079858919881642 0.017978580132110566 19 20 21
decision_type=2 9 9 2 2 9 2 9 9 9 9 9 9 2 9 9 9 9 9 9 9 9 9 9 2 2 2 9 9 9
left_child=3 12 16 10 11 17 7 9 -9 -7 -1 26 -2 14 -6 -15 -3 -5 24 -13 -14 22 -8 -19 -12 27 -4 -18 -27 -22
right_child=1 2 4 5 13 6 21 8 -10 -11 18 19 20 15 -16 -17 25 23 -20 -21 29 -23 -24 -25 -26 28 -28 -29 -30 -31
leaf_value=0.44522611632996673 1.7273624810559185 7.097264626289018 8.8813095826050006 8.7550676789208364 2.3504411914114569 -2.0934168322389235 5.873253636623315 1.3714084256945096 -1.1780747093938957 -0.17807470939389561 -0.45378724903873435 2.281427061432566 0.56763624584545347 -0.97229018173053439 6.989984844994197 2.1531885020694239 9.7585959125936661 2.5901723553121228 -1.6768078292705277 -0.58455945588974323 -0.23390939624524579 1.7546074809519299 1.4412688826188056 0.057748744087938099 0.77383460141745086 1.5521946413519765 2.5276551821407733 4.5691024141515744 4.9123400149476879 -1.2293418046325557
leaf_weight=4293 1627 777 149 320 1279 7270 339 3412 118806 73943 5898 2470 2911 3163 920 39125 125 1781 59591 16049 3718 689 208 873 559 293 3169 225 1127 24859
leaf_count=4293 1627 777 149 320 1279 7270 339 3412 118806 73943 5898 2470 2911 3163 920 39125 125 1781 59591 16049 3718 689 208 873 559 293 3169 225 1127 24859
internal_value=-0.00106862 0.00124007 0.00268935 -0.00191563 0.00227078 -0.00141738 -0.00152037 -0.00157722 -0.00215082 -0.000713654 -0.00338643 -9.0902e-05 -0.00177434 0.00343055 0.00864256 0.00315952 0.0135373 0.00565684 -0.00367541 -0.000936101 -0.00208871 0.00782362 0.012684 0.00408408 -0.00111103 0.0102247 0.00461538 0.0168571 0.00866197 -0.00240442
internal_weight=379968 101986 68871 277982 66324 207641 204667 203431 122218 81213 70341 21837 33115 44487 2199 42288 2547 2974 66048 18519 31488 1236 547 2654 6457 1770 3318 350 1420 28577
internal_count=379968 101986 68871 277982 66324 207641 204667 203431 122218 81213 70341 21837 33115 44487 2199 42288 2547 2974 66048 18519 31488 1236 547 2654 6457 1770 3318 350 1420 28577
cat_boundaries=0 2 31 60 62 91 120 148 175 204 233 262 264 266 268 270 298 325 327 329 357 377 406
cat_threshold=201326868 17 4194304 0 0 0 0 0 136 192 0 0 536870944 0 4608 4326404 2105344 33556480 1052680 16 0 12800 0 8 0 1 0 1073741824 0 1048576 1048577 0 67108864 0 0 0 1074266112 4194304 0 0 0 32 537919536 8388608 2155905092 4194304 2048 1207959560 65536 64 8704 0 8 0 384 0 0 0 16777216 7 185486034 11278 9 8192 8 0 0 0 16777472 2112 33570817 4096 0 0 36864 537395201 268435456 67108865 46153728 16 32 0 0 0 8388624 0 0 0 0 5242880 24 0 4098 524288 0 77729814 0 10752 0 0 256 0 0 0 0 0 0 0 256 524288 16 67108864 2147483776 24 0 0 0 67108992 0 88192 12582912 536870928 268439552 0 8 0 1073741824 128 0 0 0 0 537133312 2048 4098 8 0 2048 16 0 0 536870912 0 0 0 16384 268435457 512 8388672 24 4096 4 0 1 1074266112 0 0 0 0 0 671088896 2048 258 264 16777280 512 16400 0 0 134217728 0 0 0 2147483648 272629760 10485760 1212153856 4104 0 0 0 2 0 0 0 0 1048592 256 268441600 2 268505096 0 0 0 5242880 1081344 0 0 1610612736 0 0 4194560 1048576 1046 30 4194304 0 0 0 0 2147483648 0 0 36864 66560 1048592 0 128 1048576 1024 33554432 0 0 0 0 0 0 0 0 0 448 4194304 8 0 0 0 2148007954 69206016 0 133633 68157440 0 32768 512 0 0 0 262272 0 0 0 524288 3145729 524290 0 100925448 536870912 1024 2097184 0 0 128 0 17408 2052 16384 17301508 4 131136 16384 50 536879104 0 0 0 0 2147483652 2048 33554432 4100 3073 0 134217728 134217792 65600 33554688 16 0 0 2097152 65536 0 67108864 0 1073741824 0 0 4194304 2097302 0 0 0 0 0 0 0 0 0 0 0 2147483648 0 0 0 0 0 0 0 0 0 0 0 0 0 4194304 16384 1809 672153664 1800 0 0 0 0 0 0 0 0 0 0 0 0 0 4194304 0 33554432 1048576 0 0 0 0 0 0 0 0 0 0 1048576 0 0 0 0 0 0 0 0 0 0 0 0 0 131072 0 33554432 1052672 0 0 4096 67142668 0 0 0 0 0 0 0 16 0 268697632 2048 0 131204 4456448 2048 13697032 544 0 4608 0 536870912 4 0 0 2147483648 65 0 524288
is_linear=0
shrinkage=0.05


Tree=21
num_leaves=31
num_cat=25
split_feature=1 4 4 3 0 4 3 0 0 0 0 3 0 0 0 0 3 0 2 0 3 0 3 3 3 3 0 2 0 0
split_gain=306.467 133.866 89.881 89.0175 140.235 63.2116 56.9925 50.8937 45.2471 43.4047 34.3977 34.082 65.6935 32.0729 32.1842 32.03 26.005 22.645 18.6741 17.6017 16.721 14.6048 13.3192 11.957 9.60332 9.23067 6.49439 6.4068 5.88279 5.69542
threshold=0 140.65500000000003 134.89500000000001 1 2 897.73000000000013 3 4 5 6 7 8 9 10 11 12 13 14 1.0000000180025095e-35 15 16 17 18 19 20 21 22 1.0000000180025095e-35 23 24
decision_type=1 2 2 9 9 2 9 9 9 9 9 9 9 9 9 9 9 9 2 9 9 9 9 9 9 9 9 2 9 9
left_child=2 9 10 4 21 8 19 24 22 -2 -1 12 -10 -9 -15 -13 -11 -8 23 -6 -12 -3 -4 26 29 -23 -7 -18 -25 -5
right_child=1 3 5 7 6 18 17 13 11 16 20 15 -14 14 -16 -17 27 -19 -20 -21 -22 25 -24 28 -26 -27 -28 -29 -30 -31
leaf_value=0.52947289603129133 2.5866064664028485 6.2224004579029017 2.0384331764383563 0.95886687128711101 -2.2448787247805893 3.2103004990833877 4.3038414128687821 -0.99093735089641 1.1286552720569338 -0.94669237311941434 -0.98109788658679742 0.49067673438989917 -0.79819237946952137 -0.39132943956921351 1.6887389287430237 -1.3172964878922901 -0.079028418547533952 8.6599387361500657 3.8206921184092795 2.1341504054328273 -2.2146045731861199 7.1805797744544613 0.38277473425565406 -0.4553947386819972 5.6644053294122463 5.0554389619457982 1.1987154273161311 3.6934197059287008 0.57830325856548226 5.6260392395280672
leaf_weight=3231 3289 1031 2214 517 1281 1244 789 3928 12998 15392 16164 6514 58166 8005 29106 123752 11758 1331 405 7080 42413 1435 4907 5392 1178 612 3234 317 11987 298
leaf_count=3231 3289 1031 2214 517 1281 1244 789 3928 12998 15392 16164 6514 58166 8005 29106 123752 11758 1331 405 7080 42413 1435 4907 5392 1178 612 3234 317 11987 298
internal_value=-0.00105849 0.00154058 -0.0018343 0.0029836 0.00651522 -0.00138084 0.00375036 0.00186887 -0.00165118 -0.00111458 -0.0035277 -0.00178962 -0.000909322 0.00148859 0.00194351 -0.00227041 -0.00176457 0.0110563 0.00115174 0.00188687 -0.00380434 0.0158873 0.00226406 0.000954613 0.00965302 0.0132304 0.00325535 -2.6894e-05 0.000359709 0.00530303
internal_weight=379968 87347 292621 56591 13559 230813 10481 43032 208551 30756 61808 201430 71164 41039 37111 130266 27467 2120 22262 8361 58577 3078 7121 21857 1993 2047 4478 12075 17379 815
internal_count=379968 87347 292621 56591 13559 230813 10481 43032 208551 30756 61808 201430 71164 41039 37111 130266 27467 2120 22262 8361 58577 3078 7121 21857 1993 2047 4478 12075 17379 815
cat_boundaries=0 1 3 32 34 62 89 117 139 141 169 198 227 256 258 286 315 317 346 348 350 352 354 356 385 413
cat_threshold=1 1048614 19456 16406 0 0 0 0 0 4 0 0 0 536870912 32 544 138543105 3473408 301997056 34607232 0 16 4096 0 16384 67584 0 0 0 0 0 1 1048578 3072 536870912 8192 0 0 0 0 8 64 16384 0 268435456 131072 4096 4194304 4194304 306708480 2097152 16 64 1073741824 0 536870912 0 256 16779264 3221258240 34 1048576 18435 1677721600 8 0 0 0 4194434 0 33554944 131072 32 536870912 2147483648 64 0 4096 8388616 0 34 12800 1048576 0 0 1024 0 1074004992 4194304 96 24 268439552 0 0 0 1073741824 128 0 0 0 0 536871168 2048 258 8 0 0 16 32768 0 0 0 0 0 0 268435457 512 12582912 536870912 4096 0 136 0 1073741824 128 0 0 0 0 536870912 0 0 8 0 2048 16 0 0 536870912 50989632 3654 4224 128 0 2147483648 0 8388608 16777220 0 16385 0 536870912 0 262144 524417 33554436 402656256 0 16 0 4194304 327680 268435456 49152 0 262144 2048 256 1073741824 0 2147483654 524288 2148007954 77725718 0 2048 0 0 128 3072 0 32 0 512 0 0 256 655360 1 4 2147500032 2 0 0 0 0 128 128 2052 1073741824 0 0 0 134217744 33554433 67110912 0 268472324 67109376 0 2048 131072 268435456 1048576 16777216 4128 0 0 2 0 8 33554432 0 1024 4194304 4194304 16 33280 134225920 0 0 0 0 0 0 1 4 1025 0 4194304 0 17104896 100730880 1080049856 65536 16 1 0 536870912 8388624 536870913 16777216 0 0 0 1024 17408 784 4096 2 0 0 0 134217728 0 2048 0 32768 0 1048576 2048 128 0 0 0 4096 262144 0 2 0 0 0 0 0 448 541065344 32768 514 0 0 0 1073741824 33581568 0 33570824 0 268730368 0 75497600 8388608 0 128 16777216 0 0 0 2 0 234881028 536879136 0 2147484672 0 0 256 17309700 17446 16390 0 0 0 0 0 4 0 0 0 0 0 512 4325376 0 33554432 1052672 0 0 4096 0 0 0 0 0 0 0 0 1 69224528 592 17744 2132 18688 274 1048580 1024 2097176 4194304 16 512 0 2 0 0 256 0 0 0 2048 16777216 0 536903680 4 4194304 0 33558528 4194308 0 4195328 2147483648 2 0 0 0 32 0 524288 0 0 0 0 0 0 0 64 16384 0 0 0 0 0 0 33554432 0 0 0 0 0 536870912 0 0 0 3221225472 32 1048576
is_linear=0
shrinkage=0.05


Tree=22
num_leaves=31
num_cat=22
split_feature=5 3 0 4 4 0 5 0 3 0 0 2 3 0 3 0 5 3 0 3 3 5 3 3 0 3 0 5 3 0
split_gain=253.851 146.444 110.258 75.2083 61.8101 51.2277 40.2857 49.0195 39.6905 36.5864 31.7519 29.1517 29.0791 26.7903 26.232 24.4438 26.3058 23.2142 22.8225 21.2155 19.4275 16.6445 14.5715 13.2642 10.7354 7.20067 6.67654 8.7154 5.82162 5.72928
threshold=0.017192785101269221 0 1 134.89500000000001 193.66000000000003 2 0.0036860599913056086 3 4 5 6 1.0000000180025095e-35 7 8 9 10 0.017978580132110566 11 12 13 14 0.018270070706904225 15 16 17 18 19 0.011879003960451927 20 21
decision_type=2 9 9 2 2 9 2 9 9 9 9 2 9 9 9 9 2 9 9 9 9 2 9 9 9 9 9 2 9 9
left_child=3 18 14 10 13 17 7 8 -7 20 28 -11 -9 -4 -3 23 -17 -5 -2 26 -8 -16 -15 -6 -20 -19 -12 -28 -1 -26
right_child=1 2 4 5 15 6 9 12 -10 11 19 -13 -14 22 21 16 -18 25 24 -21 -22 -23 -24 -25 29 -27 27 -29 -30 -31
leaf_value=0.94630704941139965 1.5351045195376729 6.4562813065143132 2.5982922114437672 8.0337705162830275 1.0264061773528637 3.5692486925333728 9.0338854006298899 -0.37530754522547771 -0.12038323673490853 -0.50330614952958685 -1.0946435876149507 3.1854184091523177 -1.5626639305622851 2.2708933837461687 8.4236408698278495 4.4200447721727576 1.5333499168527807 2.7922659643982826 0.51728597494834216 -1.5147372091476954 1.3683630243574534 4.1245911664368791 -0.57209731246241946 5.0093288593355503 -0.16736089151448966 -0.13094599816626112 -0.16811530344174311 1.0601409749905242 -0.46800224758463688 -1.1398258033559827
leaf_weight=2612 1630 832 2993 312 984 1599 145 21503 4308 100268 2050 1081 71797 2500 123 1746 38252 1607 2923 59608 4247 1687 16293 3343 3573 774 3994 395 1682 25107
leaf_count=2612 1630 832 2993 312 984 1599 145 21503 4308 100268 2050 1081 71797 2500 123 1746 38252 1607 2923 59608 4247 1687 16293 3343 3573 774 3994 395 1682 25107
internal_value=-0.00104704 0.00108662 0.00240369 -0.00182983 0.00200231 -0.00135116 -0.00144122 -0.00216502 0.00225029 -0.000762288 -0.00324285 -0.00095596 -0.00244454 -0.000178097 0.012402 0.00307445 0.00268596 0.00548835 -0.00163839 -0.00351341 0.00370059 0.0089011 -0.000878318 0.00664399 -0.00193639 0.00376202 -0.000782293 0.00031939 0.00092472 -0.00223074
internal_weight=379968 101986 68753 277982 66111 207641 204948 99207 5907 105741 70341 101349 93300 21786 2642 44325 39998 2693 33233 66047 4392 1810 18793 4327 31603 2381 6439 4389 4294 28680
internal_count=379968 101986 68753 277982 66111 207641 204948 99207 5907 105741 70341 101349 93300 21786 2642 44325 39998 2693 33233 66047 4392 1810 18793 4327 31603 2381 6439 4389 4294 28680
cat_boundaries=0 2 31 60 89 91 120 148 150 177 179 208 210 239 241 242 244 245 273 275 295 297 326
cat_threshold=1275068692 19 4194304 0 0 0 0 0 1073741960 192 0 0 536870944 0 4608 4850692 0 33556480 1052680 16 0 12800 0 4194312 16384 1 0 0 268435456 1048576 1048577 0 67108864 0 0 0 1074266112 4194304 0 0 0 32 537919536 2155872256 2155905028 4194304 2048 1207975936 65536 64 8704 0 8 0 384 0 0 0 16777216 7 2097304 1749025280 0 2147483648 0 0 16777216 16384 33554432 0 1107296256 0 0 1 1114112 524288 128 0 16777232 266496 0 0 603979776 0 0 1073741824 32 131072 1048576 1067072 3076 1025 0 8 0 0 8404992 2147483648 64 33281 0 0 0 4096 524480 262144 67175424 33554432 1024 32 0 0 134217728 8388608 1024 0 3221520384 256 3145728 8 12582944 536870928 268439552 0 8 0 1073741824 128 0 0 0 0 537133312 2048 2 8 0 2048 16 0 0 536870912 0 0 0 16384 1 512 152963794 10246 8388640 16 4096 4 0 1 524288 0 0 0 0 0 671088896 2048 258 264 16777280 512 16400 0 0 134217728 0 0 0 2147483648 4194304 64 17408 16 0 136 0 0 134217728 6 0 0 0 256 538050560 0 134217857 2105344 268440576 65536 0 2 1073741824 65536 0 0 8 264192 1073741824 32 1073741824 524294 2052 16384 10485760 1212153856 4104 0 0 0 2 0 0 0 0 1048592 256 268441600 66 268505096 0 0 0 5242880 1081344 0 0 1610612736 0 0 4194560 0 1046 17301508 4 4 131136 16384 526336 50 536879104 0 0 0 0 2147483652 2048 33554432 4100 3072 0 134217728 134217792 65536 33554688 16 0 0 2097152 65536 0 67108864 0 1073741824 0 0 5242880 739262530 1800 192 8 0 671092736 171966464 0 0 0 0 0 0 0 0 0 256 0 0 0 0 32768 1592324 3584 67109900 0 0 0 0 0 0 0 16 0 268697633 2048 0 131204 4456448 134219776 13697032 544 0 4608 0 536870912 4 0 0 2147483648 65 0 524288
is_linear=0
shrinkage=0.05


Tree=23
num_leaves=31
num_cat=12
split_feature=1 4 4 3 5 3 3 3 4 4 3 3 3 5 3 4 2 5 4 2 3 2 3 2 5 3 4 4 2 5
split_gain=263.582 113.77 88.0634 77.1344 61.0328 36.0428 28.7576 27.7131 27.2655 26.8826 25.8388 24.4588 23.5283 20.6434 19.1108 16.7445 16.1395 13.0934 12.7474 12.551 9.64042 9.25834 7.8365 7.79933 7.13734 6.6901 5.72703 9.9962 5.67378 5.19381
threshold=0 140.65500000000003 134.89500000000001 1 0.0036860599913056086 2 3 4 897.73000000000013 140.65500000000003 5 6 7 0.017512670565302146 8 137.84000000000003 1.0000000180025095e-35 0.007434080467421421 935.05500000000018 1.0000000180025095e-35 9 1.0000000180025095e-35 10 1.0000000180025095e-35 0.017512670565302146 11 214.56500000000003 168.84500000000003 1.0000000180025095e-35 0.00047031081410323349
decision_type=1 2 2 9 2 9 9 9 2 2 9 9 9 2 9 2 2 2 2 2 9 2 9 2 2 9 2 2 2 2
left_child=2 12 14 10 7 15 21 9 16 11 26 -4 -2 -12 -1 17 -7 -6 -15 -17 -10 24 -11 -8 -5 -9 27 -3 -14 -27
right_child=1 3 4 6 5 8 23 25 20 22 13 -13 28 18 -16 19 -18 -19 -20 -21 -22 -23 -24 -25 -26 29 -28 -29 -30 -31
leaf_value=-1.9446671306609642 -0.72362089400605933 7.2287660107680187 4.6407862579067043 -0.42287180099044397 8.9023276548315451 -0.57760807604091302 1.7708858114314125 -1.925216274810881 0.19031873360639834 0.99444654719087033 0.62219954086532003 0.29347847528218834 0.14201230870295334 4.111110561151591 -0.83991140823420318 0.83378821380879931 2.0784875228854238 2.9511044224204031 4.2557287486014745 3.4124357384906006 1.8505186853994831 3.3889023882394933 -0.70654216796420433 4.1891529335200124 0.78178010188750313 -1.2792553744767845 6.1806737164874486 8.8057131904624093 3.6340162629028749 -1.8752162748108809
leaf_weight=43248 18097 131 515 9736 60 107859 27166 10281 13164 1185 2460 1133 12349 7992 18560 8295 1688 568 452 174 4317 387 33329 832 4911 30581 2349 175 310 17664
leaf_count=43248 18097 131 515 9736 60 107859 27166 10281 13164 1185 2460 1133 12349 7992 18560 8295 1688 568 452 174 4317 387 33329 832 4911 30581 2349 175 310 17664
internal_value=-0.0010398 0.00137057 -0.00175929 0.00270087 -0.00131043 -0.000632324 0.00166326 -0.0022853 -0.000850062 -0.00119595 0.00598828 0.00504247 -0.00107719 0.00490013 -0.00343548 0.00240639 -0.00114275 0.0102866 0.00607887 0.00182489 0.000983638 -0.000101038 -0.00149418 0.00261032 -0.000302794 -0.00295767 0.0104221 0.0168954 0.000576603 -0.00270905
internal_weight=379968 87347 292621 56591 230813 136125 43032 94688 127028 36162 13559 1648 30756 10904 61808 9097 109547 628 8444 8469 17481 15034 34514 27998 14647 58526 2655 306 12659 48245
internal_count=379968 87347 292621 56591 230813 136125 43032 94688 127028 36162 13559 1648 30756 10904 61808 9097 109547 628 8444 8469 17481 15034 34514 27998 14647 58526 2655 306 12659 48245
cat_boundaries=0 1 3 5 7 9 11 13 15 17 19 21 23
cat_threshold=1 1048614 19456 2112 72 1073742097 291 151652944 3334 4 16384 2048 1024 536888320 272 672156944 793 201850880 1793 576 6 69218688 48
is_linear=0
shrinkage=0.05


Tree=24
num_leaves=31
num_cat=27
split_feature=1 0 5 3 0 0 0 3 0 0 0 0 0 0 0 3 5 3 3 0 3 3 3 0 0 0 0 0 5 0
split_gain=240.185 95.9833 79.5591 78.2859 36.9432 32.6763 45.9734 33.3156 31.571 31.156 54.0947 30.36 28.4128 26.231 34.4231 21.7162 15.9191 15.4128 11.8596 11.5253 10.9952 10.5006 9.65626 9.02116 8.9779 8.37391 7.0912 6.61946 6.01999 5.6634
threshold=0 1 0.0036860599913056086 2 3 4 5 6 7 8 9 10 11 12 13 14 0.00047031081410323349 15 16 17 18 19 20 21 22 23 24 25 0.028064146620847653 26
decision_type=1 9 2 9 9 9 9 9 9 9 9 9 9 9 9 9 2 9 9 9 9 9 9 9 9 9 9 9 2 9
left_child=2 23 5 12 21 17 15 24 -6 -10 -11 18 -3 22 -15 20 -9 -1 26 28 -7 29 -13 -2 -8 -21 -5 -20 -14 -4
right_child=1 3 4 11 8 6 7 16 9 10 -12 13 19 14 -16 -17 -18 -19 27 25 -22 -23 -24 -25 -26 -27 -28 -29 -30 -31
leaf_value=-0.43065631742253868 5.5279114985542979 2.128745285609595 2.0829228170510685 1.3179485860421707 -2.2529859205228946 7.46351688160851 0.33585834332633913 -1.2761801126085666 -1.9529859205228945 -2.0281837560446365 -0.15813391827708614 4.4166879850948773 1.3026025031667929 3.3622470573938381 0.56662842691634607 -0.38857275872117841 -1.9518893265800488 2.2101987714328013 3.4336271024117906 0.16775747721148915 0.83735568758016121 1.2553974233836978 2.1828473111709639 5.0989190715582531 -0.51174225203115353 -0.687303072399568 4.6241296462312693 7.0904313405296442 -1.0075918241097412 4.8156434655612372
leaf_weight=1700 338 1749 161 861 6868 312 3403 64749 7636 17653 117760 2482 1948 8211 40490 6508 46116 1695 477 3802 3211 4337 1878 1583 10323 21745 572 684 527 189
